Allanah_Munson	0.0777719	0.0396534	-0.0992615	0.00745101	0.0234083	-0.105401	-0.00153497	-0.111541	-0.022385	0.0616547	0.0762369	-0.000443703	-0.029932	-0.0067155	0.0859584	-0.0437467	0.0675388	-0.00450898	-0.0915867	-0.0110646	-0.00498866	0.0509099	-0.0202105	0.00390139	0.0327461	0.0368393	-0.0583289	0.0690737	0.0161172	0.0225129	0.00219053	-0.114611	0.0839118	-0.124844	-0.0365835	-0.0798186	-0.0184197	0.0289086	0.0246875	0.0300599	0.108471	-0.0419559	0.00780278	-0.0639572	0.0498866	-0.0422117	-0.0100413	-0.0228967	0.130473	0.10796	0.0383743	0.0585848	-0.0158614	-0.154521	-0.0834002	0.0736787	-0.00613989	-0.0330019	-0.0629339	-0.0767486	-0.0598639	0.0603756	-0.135078	0.0276295	0.00302198	-0.00684342	0.02392	-0.00409326	0.016373	0.134054	0.0450258	-0.0106169	0.0393976	-0.0782836	-0.0972149	0.0138147	0.0424676	-0.0110646	0.0818652	0.0637013	-0.034281	-0.0767486	0.0085063	-0.0285249	0.0654921	-0.00997732	-0.110006	0.105401	0.0264783	-0.0951683	0.00305396	-0.0665155	-0.118193	0.0598639	-9.14388e-05	-0.0613989	0.0578173	-0.0588406	-0.0869818	-0.00476481	-0.00908192	0.0166289	0.0488633	0.0905634	0.0424676	-0.056794	-0.071632	0.000951363	-0.00422117	0.0793069	0.103355	-0.0353044	0.0434909	0.0340252	-0.00620385	0.034281	-0.04477	-0.0213617	0.0424676	-0.0237921	-0.0936333	0.0327461	-0.0360718	0.0437467	-0.0200826	-0.0588406	-0.0248154	0.0115762	-0.0532124	0.124333	-0.0787952	-0.0386301	0.022385	0.0353044	-0.0327461	-0.0309553	-0.0417001	-0.0211059	-0.0690737	0.0660038	-0.0486074	-0.0967032	-0.00476481	-0.0273737	0.0185476	0.0427234	-0.00334176	0.00946566	-0.0859584	-0.00719518	0.141217	0.108471	-0.0616547	0.00789871	-0.0264783	-0.0360718	0.0967032	-0.0127914	0.0278853	-0.0445142	-0.00318187	0.0521891	0.140194	0.0401651	-0.0808419	-0.00399732	0.0337694	-0.0470725	0.0125996	0.0363277	-0.0598639	0.00991336	0.013495	-0.074702	0.0480958	-0.0690737	0.1141	-0.0700971	-0.103355	0.0555148	-0.0156056	0.0207221	0.103866	-0.00127115	-0.0212338	-0.0793069	0.038886	0.00107928	0.0527007	-0.0514216	0.0200826	0.0131752	0.0340252	0.0470725	-0.133031	0.0596081	-0.0409326	-0.103866	0.00441305	-0.0511657	-0.0251991	0.0235362	0.0685621	0.0232804	0.0106169	-0.110518	0.0171405	0.00933775	-0.00757892	-0.123309	-0.00249433	-0.0956799	-0.00901796	0.0798186	0.0156056	0.0511657	0.0383743	0.0496308	0.0131752	-0.11103	0.00454096	0.0946566	0.00350166	0.0644688	0.014902	-0.0424676	0.0111925	-0.00789871	0.0035816	-0.0321065	-0.0580731	0.0920983	-0.0480958	-0.0167568	-0.0383743	0.0695854	-0.0813535	-0.0241758	-0.0249433	0.106936	-0.00527647	0.00338973	0.0834002	-0.135078	-0.0141345	0.0318507	-0.0168847	0.0243037	0.0406768	-0.0305715	0.00604395	0.0113844	0.0544915	0.0619105	0.0511657	-0.0235362	0.0202105	-0.000979344	0.0161172	-0.11103	0.04477	0.0241758	-0.0675388	-0.0323623	0.0332577	0.0445142	-0.0170126	0.0956799	-0.0473283	-0.0255829	-0.038886	-0.00441305	-0.0741903	0.0601197	0.0823768	0.0483516	0.00383743	-0.0491191	0.0532124	0.0180359	-0.0155416	0.0153497	0.035816	0.0150939	-0.0404209	-0.0424676	0.0613989	0.00422117	0.118705	0.0475841	0.0519332	-0.0721437	-0.0465608	-0.00114323	-0.0131752	-0.0470725	-0.00876213	-0.04477	0.00959358	0.0411884
WINDS_WILL	-0.0151707	-0.0621718	0.0185212	0.0431852	0.0128439	0.016939	-0.0584489	-0.037787	-0.105729	0.0949329	-0.0562152	-0.0294106	-0.0945606	0.0770632	-0.0214064	0.0718512	0.0113082	0.057332	-0.0819029	-0.00651501	-0.0327612	-0.00134954	0.113175	0.0336919	-0.0755741	-0.115409	0.0517478	0.125833	-0.0673838	-0.029969	0.0217787	0.00203594	0.0394623	-0.0487695	-0.0342503	-0.0863703	0.00981904	0.0243847	0.0329473	0.0251293	-0.0815306	-0.0524923	0.0200104	-0.00458377	-0.0446743	-0.0465357	-0.0822752	0.00138444	-0.00365306	0.031272	-0.0796692	0.100517	0.045605	0.0528646	-0.0748295	0.110197	-0.0186143	-0.00991211	0.0362979	0.0189866	-0.105729	0.0550983	0.0150776	0.0307136	0.0577043	-0.0472803	0.0282937	-0.049514	0.0688729	0.0569598	0.0118201	-0.00407188	-0.036484	0.0368563	-0.170507	-0.0543538	-0.0418822	-0.0737126	-0.0310859	0.0336919	-0.011727	0.0294106	-0.0699898	-0.0565875	0.0852535	0.0692452	-0.02606	0.0595658	-0.00888833	0.00349018	-0.177208	-0.0737126	0.00893486	0.059938	0.018242	-0.054726	0.0327612	0.00707343	0.0636609	-0.054726	0.0792969	0.109452	0.0882318	0.00642193	0.0139607	0.0703621	-0.0106102	0.142213	0.018242	2.24499e-05	0.0461635	-0.0670115	0.0666392	-0.00888833	-0.0411376	0.0483972	-0.0405792	-0.0448605	0.0658946	-0.0344365	-0.0185212	0.040393	-0.0714789	0.00595658	0.067756	0.0340642	-0.1303	0.116153	0.0474665	0.0227094	-0.0465357	0.0179628	0.116898	-0.0457912	-0.0610549	0.0662669	0.0019545	-0.0483972	0.0231748	0.0692452	-0.00372286	0.0142399	0.049514	-0.0258739	-0.00537488	-0.00232679	-0.00926061	0.115409	0.0474665	-0.102006	0.0997726	-0.122854	-0.01303	-0.0258739	0.0136815	-0.040393	0.0487695	0.0329473	-0.0269907	-0.0513755	-0.0392762	0.0893486	0.0588212	-0.0699898	-0.00428129	0.0057937	0.0703621	-0.0123785	-0.0595658	0.0543538	-0.0647778	0.0632886	-0.146681	-0.0218718	-0.0737126	-0.0191727	0.000468266	0.0389039	-0.0340642	-0.0759463	-0.0822752	0.0722235	0.0707343	-0.0335057	0.014333	0.0305275	0.0217787	-0.110197	0.0161944	0.0897209	-0.0632886	0.0284799	-0.131789	-0.0372286	0.0636609	0.067756	-0.0230817	0.0233609	0.0629163	-0.0405792	-0.00407188	0.0149845	0.0240124	-0.0217787	-0.0644055	-0.0433713	0.0960498	-0.00944676	-0.0245709	-0.0755741	-0.00623579	-0.0216857	0.0437436	0.0348087	0.0428129	0.0446743	-0.0415099	-0.0357395	0.0452328	-0.0172182	-0.0142399	0.00749226	-0.0204757	0.0439297	0.0100517	-0.0237332	0.0292245	-0.0859981	-0.0109359	-0.00758533	0.0459773	0.110197	0.0268046	0.0057937	-0.035181	0.0439297	-0.0426267	0.00940022	0.0255016	0.00777147	-0.0243847	-0.0320166	0.0101448	0.0366702	-0.0409515	-0.0647778	-0.00865565	0.123599	-0.108708	-0.0666392	0.0685006	0.0135884	0.0179628	0.0305275	0.0614272	-0.0116339	0.0878595	-0.0196381	-0.0297829	-0.0606826	-0.00805068	0.0322027	0.0381593	-0.0640332	-0.00981904	0.0647778	-0.0316443	-0.0370425	0.00558429	-0.0437436	-0.102751	0.0792969	-0.0558429	0.0610549	0.0461635	0.028666	-0.0845089	0.0539815	-0.0606826	0.0655223	-0.0856258	0.0941884	-0.0886041	-0.0058635	0.0210342	-0.0491418	0.0982835	0.0112151	0.0938161	-0.0178697	-0.016939	-0.0155429	-0.0201034	0.0610549	-0.0644055	-0.0647778	-0.062544	0.00342038	0.119876	0.0348087
nab_sexual_predators	0.0352014	0.0712941	0.050797	0.0591147	-0.0522823	-0.0600058	-0.0748588	-0.013739	0.0620852	0.102782	0.0436676	-0.199623	-0.0819882	0.0291117	-0.0745617	0.0161897	0.0534705	0.102188	-0.0210912	-0.0528764	0.0766411	0.0343103	0.045747	0.0301514	-0.0493117	-0.0980293	-0.00371323	-0.00151314	0.00467867	-0.101	-0.0362411	-0.0891176	-0.00679521	-0.0784235	-0.0537676	-0.0282206	-0.0522823	-0.0671352	-0.00212583	0.0442617	-0.00757499	-0.055847	0.0395088	-0.0466382	-0.0475294	-0.0597088	0.0193088	-0.00783492	-0.00181948	0.0466382	-0.0200515	0.0879293	0.0352014	-0.0113625	-0.0126993	0.0442617	-0.0285176	-0.00820624	0.0242103	-0.0139618	-0.0567382	0.108723	-0.0496088	0.0638676	-0.0549558	-0.0240617	-0.028072	0.0123279	0.0772352	0.0131448	-0.00406599	0.0644617	0.0451529	0.103971	-0.142588	-0.0273294	0.112882	-0.0992176	0.0472323	0.0168581	-0.0573323	-0.0200515	0.0129963	0.011511	-0.0439647	-0.0265867	-0.0772352	0.0114368	0.0398059	0.0481235	0.035647	-0.0704029	0.0105456	0.0212397	0.0445588	0.0245073	0.0620852	-0.0259926	-0.0360926	-0.0745617	-0.023022	-0.0564411	0.11407	-0.065947	0.0757499	-0.0499058	-0.0528764	0.0225765	0.0499058	0.000380606	0.0451529	-0.0139618	-0.0695117	0.00239503	-0.0023022	-0.0537676	0.0344588	0.0478264	0.103376	-0.0248044	-0.107535	0.159223	-0.0837705	-0.00168952	0.1111	-0.0582235	-0.000960799	0.0288147	-0.0187147	0.0271809	-0.0147787	-0.0421823	0.0617882	0.00742646	0.0159669	-0.0546588	-0.0346073	0.0288147	-0.0549558	0.011214	0.122982	-0.0445588	-0.0751558	-0.00203299	0.035647	0.0199029	-0.050797	-0.00657242	0.0142588	-0.104565	0.147341	-0.0143331	-0.0849588	0.0273294	0.00399172	0.016561	-0.0920882	-0.103376	0.0282206	0.0283691	-0.0304485	0.0837705	0.0270323	0.0311912	0.0163382	-0.023022	-0.00824338	-0.0320823	0.0311912	0.0632735	-0.106941	0.0579264	-0.0442617	0.0012068	-0.0650558	-0.0359441	-0.00401029	-0.0340132	-0.12417	-0.0106198	0.0409941	-0.0427764	0.109912	-0.105159	0.0236162	-0.0418853	0.0242103	0.0191603	0.0974352	0.0561441	0.0124765	0.0543617	0.0174522	-0.0421823	-0.0271809	0.096247	-0.0401029	0.0216853	-0.0635705	-0.0813941	0.0626794	0.0113625	0.0576294	-0.0427764	0.104565	-0.0784235	0.0784235	-0.0173779	-0.0564411	-0.00924595	0.00720367	-0.00096544	-0.0206456	-0.0591147	-0.0173037	0.0487176	0.035647	0.0656499	-0.0712941	-0.102188	-0.023022	0.0401029	-0.0186404	0.00319338	0.0502029	-0.0239132	0.0926823	-0.0298544	0.0231706	-0.119418	0.105753	-0.0849588	0.0172294	0.0372809	0.0132934	-0.0591147	0.0611941	-0.0347559	0.0701058	-0.0127735	0.0579264	-0.0129963	0.0671352	-0.0674323	-0.0585205	0.141994	-0.00445588	0.0132934	-0.017972	-0.0579264	0.00415882	0.0311912	0.0111397	0.0326764	-0.00222794	0.0139618	0.0059783	-0.133082	-0.0386176	-0.04545	0.0288147	0.0177492	0.0463411	-0.00605257	0.0436676	0.115259	-0.113476	-0.0286662	-0.0197544	-0.0184176	0.0561441	0.125359	-0.0346073	0.0228735	0.0778293	-0.0873352	-0.0499058	0.00211654	-0.04545	0.023022	-0.0415882	0.0276264	-0.00972867	-0.0314882	-0.0115853	-0.00794632	-0.0383206	0.128923	0.0974352	-0.0261412	-0.0335676	0.0837705	-0.0620852	0.0267353	-0.0298544	-0.0445588	-0.0234676	-0.0579264	0.0341617	0.0135162
By_Alexandra_Barham	-0.0307152	0.0330422	-0.0195461	0.0600343	0.0129725	-0.0238509	0.00520647	-0.0702728	0.0463056	0.109365	-0.0453748	-0.0151249	-0.021873	0.0772535	-0.10285	0.0497959	-0.00529373	0.0702728	-0.00398484	0.00285047	0.00468291	-0.0823727	0.108899	-0.0104711	0.0150086	-0.0383941	-0.0823727	0.0307152	0.112157	-0.034671	-0.0609651	-0.0265268	-0.0101802	-0.106107	0.0330422	-0.0902842	0.037696	0.0383941	-0.0261778	0.0236182	-0.0215239	-0.0767881	0.0509594	0.0402556	-0.0138451	-0.0369979	-0.0267595	-0.0278066	-0.0390921	0.0507267	-0.0570094	0.105176	0.000701709	0.0297845	-0.0159393	-0.018499	-0.130307	-0.0600343	-0.0381614	-0.130307	-0.107969	0.0739958	-0.0767881	0.00767881	-0.00369397	-0.0707381	0.0342056	0.0430479	-0.00047629	0.10285	0.00450839	-0.0106456	0.0372306	0.0174518	-0.136822	-0.0684112	0.0930765	-0.0618959	0.0404883	0.0180336	-0.0187316	-0.0425825	-0.000365398	-0.00228328	0.0581728	-0.0698074	-0.0456075	0.14613	0.0356018	-0.0465382	-0.0272249	-0.0907496	-0.0497959	0.0140196	-0.022222	-0.069342	0.0532863	-0.0244326	0.0674805	-0.0311806	-0.00977303	0.0502613	0.0628266	-0.0360671	0.0374633	0.057242	0.0174518	-0.0210586	-0.0362998	0.0530536	0.000209967	-0.0148922	0.0721343	-0.0490979	0.0178009	0.0430479	0.00762064	-0.0134961	0.101453	0.0210586	-0.0490979	0.0477017	-0.0819073	0.0421171	0.0739958	-0.0511921	-0.118207	0.0416517	0.0411863	0.0837688	-0.0437459	-0.0397902	0.0066317	-0.00942399	-0.0251307	-0.0175682	-0.0267595	-0.0183826	0.0148922	0.0739958	0.0604997	-0.0233855	0.0207095	0.000916222	-0.0175682	0.0125072	-0.00372306	-0.0245489	-0.0614305	-0.106107	0.126584	-0.116811	-0.0245489	0.0553805	0.0288537	-0.0874919	-0.00315587	-0.0362998	-0.0628266	-0.0642228	-0.0210586	0.0856304	0.145199	-0.015823	0.0460729	-0.0716689	0.0819073	0.00415936	0.025596	0.0986611	-0.0958688	0.00223965	-0.0386267	-0.0898188	-0.0302499	-0.0175682	0.079115	-0.0702728	-0.0800458	-0.073065	-0.164745	0.018848	0.0614305	-0.073065	-0.0374633	-0.00994755	-0.00607906	-0.0120418	0.0193134	0.107969	-0.091215	0.0574747	-0.0907496	-0.0011271	-0.0637574	0.0268758	-0.0100057	-0.0372306	0.0281556	-0.108434	-0.037696	0.0725997	-0.0665497	0.00210876	-0.01146	-0.0809765	0.0544497	0.00814419	-0.11588	-0.0456075	-0.0216403	-0.0279229	0.047469	0.0940073	-0.0528209	0.00538098	-0.0134961	0.0335075	0.0140778	-0.0991265	-0.0198951	0.031646	-0.0670151	-0.00523555	0.000919858	-0.059569	0.0467709	0.0247816	-0.0196624	-0.0537517	-0.0335075	0.0577074	0.0330422	0.00866775	0.0187316	-0.007068	-0.000865321	-0.018848	0.116811	0.031646	0.0688766	-0.0337402	0.0197788	-0.0148341	0.0258287	0.0129725	-0.0767881	0.0958688	-0.00744612	-0.0749266	-0.0144269	0.0614305	-0.0386267	0.0593363	0.0921457	0.0194297	0.0133797	-0.127515	-0.0374633	-0.10378	-0.011111	0.069342	0.0805112	0.0178009	0.00767881	0.0977303	-0.0744612	-0.0231528	-0.0712035	-0.0451421	-0.00977303	0.125653	-0.0279229	0.0702728	0.0423498	0.0109365	-0.0460729	-0.0577074	-0.0656189	0.012798	-0.0749266	0.0981957	-0.0463056	0.0190807	0.022222	0.00462474	-0.00335948	0.0758573	0.0786496	0.0954034	-0.0264105	-0.0224547	-0.0463056	0.0558459	-0.0247816	-0.0600343	-0.0271085	-0.041419	0.100057	0.0432806
Mayor_Noramie_Jasmin	0.07302	0.0208345	-0.0805601	-0.00377006	0.00607673	-0.0884971	0.0428596	-0.0849255	0.0666705	0.0761948	-0.018255	-0.0253983	-0.0428596	0.01007	0.127785	0.0192471	0.0543682	0.0900845	-0.0615114	-0.0263904	-0.0355179	-0.0162708	0.00362124	0.00458855	0.0367084	0.0183542	-0.0283746	0.0367084	0.041669	-0.0505981	0.0166676	-0.0408753	0.0295652	0.00505981	-0.0137905	-0.112705	0.103974	0.0263904	-0.0960372	-0.00887947	-0.0257951	-0.0203385	0.0380974	-0.0539713	-0.0492091	-0.059924	-0.0124015	-0.0452407	-0.0113102	0.0244061	0.0650831	0.0146834	0.0185526	0.0857192	-0.0303589	0.0343273	-0.186519	0.0255967	0.0698452	-0.043058	0.0371053	0.0908782	-0.059924	-0.00179822	0.0400816	0.00724247	-0.0257951	-0.000678982	-0.0738137	-0.0265888	0.0225211	-0.0224219	-0.0192471	-0.0448438	0.0361132	0.0972277	0.00560548	-0.0785759	0.0865128	0.0259935	-0.0115582	-0.067861	0.00308797	-0.0571461	0.0267872	0.00763932	0.0563524	0.0120543	-0.0367084	-0.0134928	0.0492091	-0.0789727	0.00629996	-0.0754011	-0.104768	-0.104768	0.075798	0.0662736	-0.0503997	-0.0283746	-0.0515902	-0.112705	0.0204377	-0.0394864	0.00788735	-0.0535745	0.00436533	0.0392879	-0.0789727	-0.0357163	-0.0329384	0.0654799	0.0916719	-0.0236125	0.0172629	-0.0976246	-0.0066472	-0.0539713	-0.0698452	-0.0257951	-0.0151794	0.121435	0.00190983	-0.0646862	0.00503501	0.0498044	-0.0259935	0.00957396	0.044447	0.0892908	-0.0432564	-0.00729208	0.00386927	0.0188503	0.0159731	-0.0813538	-0.02014	0.078179	0.0519871	-0.0319463	-0.0936561	0.00848262	-0.0305573	0.00563028	0.0273825	-0.000197649	-0.0845286	0.0226203	-0.0996088	-0.0339305	0.115086	-0.0307557	0.0825444	0.134928	-0.0307557	-0.0579398	0.0235132	-0.0108637	-0.0944498	0.0470265	-0.0267872	-0.00957396	0.0174613	0.00193463	0.0249022	-0.0410738	0.0241085	0.0829412	0.101593	0.119848	0.00803617	0.0615114	-0.147627	-0.0398832	-0.0359147	0.0458359	0.0190487	0.00897868	-0.0821475	-0.108736	-0.086116	0.125404	0.0738137	-0.0841318	-0.0138897	0.0281762	-0.0222235	-0.0666705	-0.0535745	-0.0448438	-0.0167668	0.115086	-0.0575429	0.0575429	-0.0686547	0.123023	-0.0126495	-0.0177589	0.0503997	0.0109629	0.0347242	-0.0976246	-0.0563524	-0.0122527	-0.0412722	-0.0252991	-0.0245054	0.0813538	-0.0124511	-0.0494076	-0.0252991	-0.0297636	0.0331368	0.0107149	-0.103974	0.011211	-0.080957	-0.00137037	-0.0881002	-0.0892908	0.0650831	0.0281762	-0.0754011	0.00364604	0.00644878	-0.0165684	0.0349226	0.0446454	-0.0259935	0.0335337	-0.0658768	0.129372	0.0141873	0.107943	-0.00234388	0.0480186	0.0249022	-0.0255967	-0.0396848	0.0607177	-0.0825444	-0.189693	-0.0386927	-0.01637	-0.00793696	0.0694484	-0.0650831	0.0103677	-0.107943	0.0339305	-0.00317478	0.110324	0.0259935	0.00714326	0.0121039	-0.0646862	0.0583366	-0.0873065	0.0178582	-0.0396848	0.0936561	0.0654799	-0.07302	-0.0142865	0.0531776	0.0464312	0.00182302	0.0115086	0.0122031	-0.043058	-0.0225211	0.0041173	-0.0888939	0.00892908	-0.0448438	-0.0193463	-0.00213306	-0.0161716	-0.0347242	-0.0575429	0.0382958	-0.0611146	0.00724247	0.0281762	0.0710358	0.0213306	-0.0515902	0.0750043	-0.0361132	0.101196	-0.0686547	-0.0325415	-0.0611146	-0.0369069	-0.0142865	0.0142865	-0.0615114	-0.104768	0.0754011	0.0129968
Chief_Executive_Glenn_Tilton	0.00559824	0.0383551	-0.0702795	0.0415705	-0.0369771	-0.111161	-0.0675234	0.0463936	0.104271	0.0904906	0.00154311	0.0780883	0.0849784	0.0404222	0.0369771	0.0383551	0.0353694	-0.154339	0.0222781	0.0213594	-0.0172254	0.0548915	0.0199814	-0.0716575	-0.018144	0.113917	-0.0148138	-0.046164	0.0447859	0.0245748	0.00757916	-0.00574179	0.0129764	-0.0424892	0.0725762	0.00821075	0.0808444	0.0606333	0.103352	0.000760787	0.000592122	0.0022393	0.0282496	0.106108	-0.103812	-0.152502	0.081763	-0.0287089	0.0227375	-0.0273309	0.0249194	-0.0606333	-0.0946246	0.0597146	-0.0473123	-0.00102634	-0.117592	0.0344507	0.00895719	0.00522503	0.0145841	0.0721168	-0.163526	-0.0121726	0.110242	-0.00456472	0.00199527	0.0845191	0.0638487	0.0109668	-0.0987587	0.0762509	0.0689014	-0.00594275	-0.0854378	-0.0831411	-0.00248332	-0.0184886	0.0548915	0.0459343	-0.047542	-0.0711982	-0.0269864	-0.0198666	0.0881938	0.0355991	-0.0358288	0.0877345	0.0326133	0.0493794	0.0183737	0.0502981	-0.0707388	-0.0191776	-0.0551212	-0.117592	0.010163	0.0585662	0.0226226	-0.0509871	-0.017455	-0.0587959	-0.04892	0.0753322	0.0652267	0.00190914	0.0923279	0.030776	-0.0246897	-0.00116989	-0.0265271	-0.0283644	0.0597146	0.0131487	-0.0238858	0.0112539	0.0587959	-0.0532838	0.0399628	0.0110816	-0.102433	0.0180292	-0.0960027	0.00134214	0.00136367	-0.0323837	-0.0528244	0.0157325	-0.0159622	0.0268716	-0.0234265	0.0716575	0.064308	0.00539728	0.0822224	0.0214743	0.00720594	-0.0323837	0.0369771	0.0259529	0.126779	-0.101974	-0.0339914	0.021704	0.031465	-0.0298573	0.0381255	-0.0330727	0.0067466	0.0339914	-0.0346804	0.0323837	-0.0130339	0.0558102	0.0312353	-0.0150435	0.0283644	-0.0420299	0.0606333	0.00134932	-0.0969214	0.0103352	0.0491497	0.0661454	-0.080385	-0.0633893	-0.081763	-0.0204408	0.0585662	0.119429	0.0693608	-0.0624706	0.0218188	0.047542	0.0431782	-0.109783	-0.0424892	-0.0191776	-0.0592552	-0.113917	-0.0638487	0.065686	0.00228236	0.0114262	0.0259529	0.0512167	-0.159851	-0.00726336	0.00516761	-0.0194072	-0.0183737	0.0748729	-0.109783	0.0411112	-0.0813037	0.081763	-0.046164	-0.0546618	-0.061552	-0.0794663	-0.0429486	-0.0539728	0.045475	-0.016077	0.0105649	-0.0266419	0.032154	-0.0546618	-0.00533986	-0.0813037	-0.0689014	-0.0707388	-0.00519632	0.0519058	0.0845191	-0.0362881	0.0293979	0.0666047	-0.0946246	-0.0583366	-0.0753322	0.0103926	0.0187182	0.0734949	0.101055	-0.034221	-0.0265271	-0.0633893	0.0987587	0.031465	-0.0054547	-0.0378958	-0.01223	-0.00393312	0.014699	0.0240007	-0.0330727	-0.136884	-0.0564992	-0.0502981	-0.0122874	-0.065686	-0.0610926	-0.0484607	0.0463936	-0.0113113	-0.047542	-0.00447859	0.0110242	-0.0378958	0.0130339	0.0111391	-0.0891125	-0.025838	0.103812	-0.0378958	0.0721168	-0.0693608	-0.0048231	0.0123448	0.0349101	0.0757916	0.0120003	0.0900312	-0.079007	-0.0693608	0.0698201	-0.0429486	-0.0509871	-0.0206704	0.0319243	0.0372068	-0.0219336	-0.0355991	-0.0276754	0.0748729	0.0330727	0.0822224	-0.0209001	0.0135506	-0.0392738	0.0235413	-0.0652267	-0.0679828	0.0378958	-0.064308	0.0601739	0.00511019	-0.00190914	0.0187182	-0.0473123	-0.0264122	0.0202111	0.146071	0.0113113	0.000412691	0.0275606	0.0535135	0.129535	0.0209001
Neil_Kinnock	0.0345703	-0.0705328	0.102087	0.0237816	-0.0494193	-0.1174	0.00678646	0.0368905	0.00957065	0.0350344	-0.0774932	0.0387466	-0.08863	0.0131669	0.0140369	-0.0285379	-0.00478532	-0.0501154	0.0932703	-0.0909502	0.0303941	0.015081	0.0951264	0.0114848	-0.0133989	0.0714608	-0.0277259	-0.00210264	0.0201854	0.0677486	-0.00129059	0.0308581	0.0103827	0.0784213	0.030162	-0.0138629	0.0714608	0.0498834	-0.0236656	0.0213454	-0.00527836	-0.0937343	0.0802774	-0.0649644	-0.00916462	0.0385146	-0.0378186	-0.0235496	-0.0392107	-0.00343673	-0.0830616	-0.0556838	0.0491873	0.0672846	-0.0227375	-0.0784213	-0.00800454	-0.089094	-0.0412988	-0.0779573	-0.00232016	0.0429229	-0.150346	-0.0951264	0.0617162	0.0088746	-0.127145	0.0341063	0.0345703	-0.00928063	-0.0654284	-0.00198663	0.0494193	0.0341063	-0.0454751	-0.102087	0.0696047	-0.00327722	0.0194893	-0.0531316	0.059396	-0.0345703	-0.029582	-0.029582	-0.00933863	0.11508	0.0649644	0.00498834	-0.0254057	0.00533636	-0.0359624	-0.0517395	-0.126217	0.0756371	-0.0505794	-0.0243616	-0.0043793	-0.0645004	0.029698	-0.0549877	-0.135497	-0.0382826	0.0248257	-0.00081568	0.0663565	0.0489553	0.0267978	0.0997667	0.0482593	-0.0482593	0.0235496	-0.0401387	0.0359624	0.0979106	0.0682126	-0.0577719	0.00806255	0.0157771	0.11508	0.0937343	0.0129349	-0.0189093	0.0415308	-0.104407	-0.0997667	0.0470992	-0.029698	0.118792	-0.0466352	-0.0473312	0.0464031	-0.0700687	-0.0974466	0.0979106	-0.00939664	-0.0774932	-0.00147185	-0.0270298	0.0598601	-0.0158931	-0.0115428	0.0412988	-0.0979106	-0.00788853	0.0654284	-0.00194313	0.0923423	-0.0691407	-0.0177492	0.0658925	-0.0480273	-0.0568438	-0.0559158	0.139209	0.00481433	0.0132829	-0.088166	-0.0120648	0.0658925	-0.00823656	-0.0394427	0.0522035	0.0257537	0.0426909	0.0306261	-0.0696047	-0.0249417	-0.08863	-0.0844537	0.0844537	-0.00189963	-0.0631083	-0.0310901	-0.0668205	-0.0761011	-0.0668205	-0.0649644	-0.102551	-0.029582	-0.0201854	0.0155451	0.0324822	0.0201854	-0.0242456	0.0341063	0.0853818	-0.00519135	-0.029698	0.0247097	0.0225055	-0.0468672	0.0408348	-0.0361944	0.0668205	0.130857	0.113688	0.00571339	-0.0559158	-0.0230856	0.0197213	-0.0262178	-0.0417628	0.00629343	0.0761011	0.000393339	-0.0236656	0.132713	-0.0392107	-0.0308581	-0.0672846	-0.00158061	-0.0877019	0.100231	-0.059164	0.014211	-0.0573079	0.00951264	-0.0531316	0.0705328	0.0545237	-0.0160091	-0.0361944	0.0793494	-0.0640363	0.0015516	0.00452431	-0.0496514	0.030162	0.074245	-0.0895581	-0.0278419	-0.0223895	0.0422269	-0.0761011	-0.0317862	-0.00426329	0.000638043	-0.0126449	0.0496514	-0.0422269	0.0352664	-0.0617162	0.129001	-0.0364265	0.074245	-0.000728674	0.0419948	-0.0073375	0.0015226	0.0223895	-0.0327142	-0.0392107	-0.0406027	0.113688	-0.0617162	0.0237816	0.0203014	0.0308581	0.0186773	-0.0872379	0.0417628	0.0394427	0.00263918	0.154986	-0.0280739	-0.0932703	-0.0242456	-0.0526676	0.0177492	-0.0272618	-0.0505794	0.0310901	0.0132249	0.0385146	0.0211134	0.00614842	0.103943	0.0993027	-0.02935	-0.0110207	0.0237816	0.00629343	0.0554518	-0.0180972	-0.0133989	-0.0278419	-0.132713	0.0946624	0.0278419	0.0417628	-0.0510435	0.0267978	-0.0617162	0.030162	-0.105799	-0.0626442	0.0635723	0.00704748	0.0197213	0.0774932
Makoto_Tamada_JPN_Konica	-0.0499672	-0.0236303	0.026441	0.018009	0.0328951	-0.0389328	0.0090045	-0.0240467	0.00287572	0.0641245	0.0205074	0.0807803	-0.081613	0.00333115	-0.039141	0.0674557	0.0138451	0.0612098	-0.0378918	0.0397655	0.0167598	-0.0322705	0.0870262	0.0308131	0.0125959	-0.0537147	-0.0462196	0.0318541	-0.0258164	-0.0566295	-0.00510082	-0.081613	0.0410147	0.00182172	-0.0418475	-0.128249	0.0123356	0.0653737	-0.0241508	-0.00580348	-0.0128041	-0.000432658	0.0520491	0.103265	0.0820294	0.0205074	0.020091	-0.00666229	0.0252959	0.0218606	-0.095354	0.058295	0.0468442	0.0124918	-0.0724524	0.184046	-0.0123356	-0.0401819	0.0205074	-0.0703704	-0.115757	-0.0184254	-0.100351	-0.0376836	0.0433049	-0.0401819	0.0165516	-0.0453869	0.0549639	0.0832786	-0.0303967	0.0260246	0.026441	0.0691213	-0.14657	-0.0414311	0.000800256	-0.219856	0.0238385	-0.0761999	0.0599606	-0.0351852	-0.072036	0.0266492	0.111593	-0.00806762	0.0449705	0.0691213	-0.000227715	0.074118	-0.0991016	-0.0206115	0.0266492	0.14657	-0.0093168	-0.0285229	0.0224852	-0.0666229	0.0828622	-0.0148861	0.0811967	-0.0173844	0.00588155	0.0289393	0.0545475	0.0670393	0.0378918	0.074118	0.0451787	0.0732852	0.046636	-9.63722e-05	0.072036	0.00494467	-0.0397655	0.0173844	-0.0541311	-0.0928557	0.123252	-0.0187377	-0.021132	0.0724524	-0.0820294	-0.0208197	0.0749508	-0.00310994	-0.0791147	-0.0107221	0.0381	0.109928	-0.0162393	0.0607934	0.0666229	-0.0724524	-0.0143656	-0.00765122	0.0154065	0.0189459	0.0766163	0.0795311	0.0795311	0.0657901	0.00497069	-0.0366426	-0.0770327	-0.0395573	0.0155106	0.0895245	0.00193883	-0.138243	0.0891081	-0.0620426	-0.0186336	-0.0140533	-0.0114508	-0.0308131	-0.023318	0.0403901	-0.0412229	-0.0356016	-0.0119713	0.0982688	0.129082	-0.0532983	0.00473647	-0.0532983	0.0628754	0.0845278	-0.060377	0.0112426	0.022277	0.0612098	0.00139882	-0.0549639	-0.0478852	0.000322054	0.0193623	-0.0574622	-0.00418996	-0.0820294	-0.0324787	0.0149902	0.01905	-0.0345606	-0.0532983	-0.0824458	0.0316459	-0.0217565	-0.0172803	0.0599606	-0.0641245	0.00884835	-0.109928	-0.0140533	0.0653737	0.0478852	-0.00801557	-0.00270656	0.0866098	-0.109928	0.0240467	0.046636	-0.0445541	0.0553803	0.0541311	-0.083695	-0.0112426	0.00364344	-0.0649573	-0.13741	0.0439295	-0.138243	0.00559528	0.0505918	0.00749508	0.0206115	-0.0470524	-0.0422639	0.00195184	-0.0326869	-0.114092	0.0491344	-0.00848401	0.097436	-0.0682885	-0.0414311	0.00663627	-0.0870262	0.014782	-0.0125438	0.00310994	0.102016	-0.0155106	0.0179049	-0.0345606	-0.00288873	-0.0537147	0.00320102	0.0278983	0.0587114	-0.046636	-0.0474688	0.00290174	0.062459	-0.0213401	-0.0225893	-0.0541311	0.0753672	-0.0131164	-0.0645409	0.0505918	0.0537147	-0.0410147	0.00642807	0.00645409	0.0134287	0.0945212	-0.0595442	-0.0182172	-0.0238385	0.0970196	0.0458032	0.0401819	-0.0453869	0.033936	0.0229016	-0.0383082	-0.0281065	0.0612098	-0.0712032	-9.71855e-05	0.0153024	-0.069954	0.00608975	0.0924393	0.0510082	-0.0949376	-0.0397655	-0.0916065	0.0716196	-0.0235262	0.037059	-0.069954	-0.0562131	-0.0399737	-0.0574622	0.0761999	0.0416393	-0.00330512	-0.0125959	0.0283147	0.0470524	-0.120754	0.083695	-0.0695377	-0.0599606	0.00188678	0.00806762	-0.00632397	-0.00952499
abductor_muscle	-0.0062713	-0.000198778	-0.0645048	-0.0468257	-0.0508871	0.114675	0.0570987	-0.0864842	-0.00376278	-0.00486772	-0.0437199	-0.0389418	0.0707163	-0.0492147	-0.0222183	0.118498	-0.008302	0.0769279	-0.0250852	-0.00201577	0.0154095	0.00937708	0.0547096	0.0348804	-0.0235323	-0.100341	-0.0128412	-0.0451533	-0.000559937	0.00298633	-0.0131399	0.101774	0.0831395	0.0237712	-0.0272353	0.0127218	-0.0788391	0.086962	0.0044795	0.00200084	0.0249657	-0.0580543	0.0539929	0.00749569	0.0726276	0.0410919	0.0173207	-0.00642061	-0.0312968	0.00967571	0.0224572	0.089351	-0.0518427	-0.0194709	-0.0186347	0.0365527	0.048498	-0.0053754	0.0260408	-0.0102133	-0.0836173	0.0821838	0.0955626	-0.0106313	-0.0764501	0.0384639	0.0293855	-0.0217405	0.0673716	0.00185899	-0.0451533	-0.0360749	0.0222183	-0.0246074	-0.129965	-0.0451533	0.00347908	-0.117542	-0.0206654	-0.107986	-0.0224572	0.019232	-0.0659382	-0.046109	0.0355971	-0.0504093	0.0327302	0.10273	0.0506482	-0.0523205	-0.0989073	-0.0134982	0.0616379	0.0836173	-0.0280715	-0.0649826	0.051126	-0.071672	-0.119931	-0.0594877	0.00160515	0.0621157	0.0788391	-0.0137371	0.0898288	-0.0278326	0.0322524	0.0277132	-0.0692829	0.0336858	0.0150511	-0.0173207	0.113242	-0.0635491	-0.0850507	-0.0778835	0.00755542	-0.020546	0.0410919	0.0721498	0.0296244	-0.012244	0.0468257	0.0439588	-0.0204265	-0.0594877	-0.0425254	0.0212627	-0.0903067	-0.00776446	-0.0821838	0.0812282	-0.0566208	-0.0158873	0.0351193	-0.0965182	-0.029505	0.0754945	-0.0273548	0.0745388	-0.0193514	0.0355971	0.0855285	-0.00335962	0.0256824	-0.0974739	-0.0931735	0.0625935	-0.0575765	0.0807504	0.094607	-0.0244879	-0.0142149	-0.0108702	0.135699	-0.0104522	-0.0118856	-0.0640269	0.0149914	-0.0993851	0.0635491	0.0520816	0.138566	-0.101296	0.086962	-0.0504093	0.00531567	-0.0341636	-0.00198591	-0.0339247	-0.0836173	-0.0441977	-0.074061	0.0172013	-0.0254435	-0.0726276	0.0278326	-0.0137969	-0.017918	0.0527983	-0.0102133	0.00127666	0.0778835	0.0367916	0.0387029	0.0260408	-0.108941	0.00400168	0.12901	0.00758528	-0.0903067	0.00332976	-0.038225	-0.0420475	0.0570987	0.0883954	0.011587	0.0979517	-0.0211432	-0.0769279	-0.0917401	0.0291466	-0.0769279	0.125187	0.134743	-0.1443	-0.0252046	-0.0367916	0.110853	-0.0351193	-0.0303411	-0.0396585	-0.0673716	0.0697607	-0.0148122	-0.0535151	-0.0296244	-0.0840951	-0.0248463	-0.0384639	-0.0759723	0.0302217	-0.0489758	0.0573376	-0.0769279	-0.0903067	-0.0339247	-0.0220989	0.0154095	-0.00117214	0.0232934	0.124231	-0.0365527	-0.0256824	0.0151108	0.0621157	0.0389418	0.0143941	0.0111689	0.0649826	-0.038225	-0.00222482	0.0379861	-0.100341	-0.000541273	0.0611601	-0.116109	-0.0125426	0.0542318	0.0697607	-0.0209043	-0.100819	0.0035388	-0.0304606	0.0697607	0.0389418	0.00731651	0.029266	-0.0898288	0.0697607	0.0396585	-0.00872009	0.0477813	-0.0250852	0.103685	-0.0449144	-0.0168429	-0.0477813	0.0188736	-0.0425254	-0.0707163	0.0850507	-0.0430032	-0.0231739	0.0864842	-0.109419	0.0549485	-0.0204265	-0.0224572	0.00734637	0.0599655	0.0597266	0.0213821	-0.03058	-0.0269964	-0.0193514	-0.0102133	0.0649826	-0.00949653	0.0659382	0.0788391	0.00895899	-0.0310578	0.0142747	0.0240101	0.026877	-0.0158873	0.0668938	-0.0132593	-0.00216509
visit_www.availability.sungard.com	-0.00421577	-0.0360448	-0.0280349	0.039839	0.0413146	0.081786	0.0463735	-0.00598112	0.00156115	0.0254	-0.0318291	-0.00619191	-0.0516432	-0.000470981	0.0143336	0.0598639	0.0255054	0.0324614	-0.0134378	0.00658714	0.0381527	0.0012318	0.0556482	0.0335154	-0.1016	0.0666092	0.0166523	0.0178116	0.0360448	-0.0335154	-0.00779918	0.0271917	-0.128159	-0.143336	0.0111191	-0.10413	0.0687171	-0.0354125	0.0352017	0.0472166	-0.0318291	-0.0965412	-0.0467951	0.0320399	-0.0590208	-0.116355	-0.0826291	0.00318818	-0.0552266	0.107924	-0.0729328	0.0771486	0.0623934	0.0649229	-0.0330938	0.0670308	-0.0598639	-0.0297212	-0.0284565	-0.0636581	-0.073776	-0.0170739	-0.0598639	0.0127527	0.0231867	-0.0645013	-0.0392067	0.0417361	0.098649	0.0491137	0.0716681	-0.0649229	0.014966	-0.0170739	-0.0965412	-0.132375	0.0205519	-0.0187602	0.0375204	0.0598639	-0.0231867	-0.0124892	-0.0141228	-0.0236083	0.092747	-0.0166523	-0.0194979	0.0526971	0.0453195	0.0505893	0.000523678	-0.0670308	-0.0682955	-0.0480598	-0.0516432	0.00134378	0.14165	-0.00806266	0.0611287	-0.0385743	0.0602855	-0.0505893	-0.00700872	0.081786	-0.0158091	-0.0381527	-0.0290888	0.0400498	0.0406822	0.0531187	-0.033937	-0.0117515	-0.0221328	-0.0383635	-0.0227652	0.0503785	-0.018971	-0.0529079	0.217534	0.0127527	-0.102022	0.0392067	-0.0135959	0.0480598	0.0322506	-0.010961	-0.152611	0.0712465	0.0598639	0.120571	-0.0733544	-0.017917	-0.0269809	-0.00748299	0.0197087	-0.0486922	0.00355706	-0.0632366	0.0333046	0.134062	0.0615503	-0.0419469	-0.00387324	-0.000708118	0.0965412	-0.0501677	0.0280349	0.00943279	-0.0602855	-0.0535403	0.164415	-0.0640797	-0.0990706	0.0210789	0.0165469	-0.0529079	-0.0280349	0.00753569	-0.0935901	-0.0581776	0.0499569	0.0910607	0.0201303	-0.013912	-0.0482706	-0.00779918	-0.00324087	-0.00758839	0.00310913	0.0381527	-0.00447926	0.00205519	0.0237137	-0.062815	-0.0360448	-0.0262432	0.0356233	-0.00360975	-0.092747	-0.0851586	-0.126473	-0.0171793	0.0493245	-0.0813644	-0.040893	-0.073776	-0.0205519	-0.00137013	0.0796781	0.0969627	-0.0560698	-0.0172847	-0.119728	-0.0826291	0.00223963	0.0758839	0.0585992	-0.0354125	0.0112245	-0.182964	-0.0763055	0.0543834	-0.0233975	0.0383635	-0.0169685	-0.0666092	0.0763055	-0.0404714	-0.0364664	-0.0103813	-0.0161253	-0.0556482	-0.0221328	0.0990706	-0.0537511	0.120571	-0.0333046	0.00204201	-0.0678739	-0.0733544	-0.00180488	0.0263486	-0.012173	-0.0262432	0.00272708	-0.0486922	0.0860017	-0.0333046	0.00513797	-0.022976	0.00795727	0.0440548	-0.0018444	-0.0758839	-0.0276133	-0.0461627	0.0122784	-0.00532241	-0.0140174	0.0225544	0.0320399	-0.0170739	0.0465843	-0.0444764	0.062815	-0.0228706	0.0221328	0.110453	-0.113826	-0.112983	-0.0227652	0.0345693	-0.0230813	-0.0262432	0.124787	-0.0590208	0.0457411	-0.0632366	-0.062815	-0.0914822	-0.0209735	0.0602855	-0.025927	-0.003175	0.0118042	0.0691386	0.0225544	0.00285882	-0.0101179	-0.0872665	0.0218166	0.111296	-0.0152822	0.044898	0.0510108	0.0251892	0.022449	0.0427901	-0.0704034	0.0292996	-0.0246623	0.0110664	-0.000688356	-0.00304326	-0.043844	0.0142282	-0.000113628	0.0788349	0.0695602	0.0636581	-0.0411038	0.0322506	-0.0775702	0.0564913	0.0503785	-0.0472166	0.00325405	-0.00869503	0.081786	-0.0278241
Eury	-0.0191727	-0.057287	-0.0367284	-0.028297	0.111802	-0.119194	-0.0184797	-0.0776147	0.0088356	0.0533601	-0.0084891	0.00522628	-0.0734567	-0.0496641	0.0195192	0.0522051	0.000703816	0.028066	-0.00999058	0.000308596	0.0353424	-0.0103371	0.0780766	-0.00163141	-0.0120118	-0.0116075	-0.0535911	-0.025987	0.0619069	-0.0337254	-0.0794626	-0.0473542	0.05798	-0.060059	0.0974803	-0.0107413	0.0674508	-0.0743807	0.0318774	0.00563053	-0.00189128	0.0213671	0.112726	0.00675663	-0.0348804	-0.000230996	-0.0422723	0.0739187	0.12751	0.0642169	0.0646789	-0.0388073	-0.107644	-0.0358044	-0.0197502	-0.01334	-0.0154767	0.0152457	-0.0339564	-0.0203276	0.00134988	0.0328014	-0.0411173	-0.0161697	-0.00287301	-0.00210784	-0.058904	0.0220601	-0.0826966	0.007132	0.013109	-0.0101061	0.0084891	0.0202121	-0.0628309	0.0272575	0.0545151	-0.103486	0.0429653	-0.0036815	-0.0947084	0.0526671	-0.0243701	0.0297985	0.0475852	-0.0339564	-0.00661226	-0.000436727	0.00256983	-0.0183642	-0.1021	0.00895109	-0.0510501	-0.0330324	-0.0028297	0.0056594	0.055208	-0.0619069	-0.0459682	0.0443512	-0.00638126	-0.0923984	0.0431962	-0.0318774	-0.0979423	0.0318774	-0.0101061	0.0279505	-0.0212516	0.025987	-0.10441	-0.0286435	0.0937844	-0.0436582	0.0947084	0.00149426	0.0711468	-0.0229841	0.057056	-0.0371904	-0.027604	-0.006901	-0.125662	0.104872	0.00278639	-0.0859305	0.0142063	-0.0422723	-0.0464302	-0.0840825	0.0450442	-0.0107413	0.0395003	0.0291055	-0.00459104	-0.058211	-0.0243701	0.0395003	0.0910124	-0.0087201	0.0923984	0.014264	-0.0399623	-0.0203276	-0.0211361	0.00366706	0.0831586	0.0455062	-0.0734567	-0.00193459	-0.00287301	0.0868545	-0.100714	0.00975958	0.0459682	0.0293365	-0.00534178	0.0325704	-0.0900884	0.137674	0.05798	0.0960943	-0.0116075	0.0757667	0.029452	-0.133978	0.0226376	0.0923984	0.170013	0.0753047	0.0395003	-0.00739187	0.0997903	-0.0438892	-0.0122428	0.0609829	-0.0739187	0.0330324	0.0325704	0.0651409	-0.0211361	0.0817726	0.058442	0.058442	0.0408863	-0.0614449	0.059135	-0.00744962	0.0845445	0.00667001	0.00756512	0.121042	0.027373	-0.0498951	-0.0464302	0.0702228	-0.0632929	-0.0692988	-0.0831586	-0.0323394	-0.0263335	-0.00820036	-0.0027142	0.0337254	0.00626577	-0.0199812	0.0255251	-0.0873165	0.056363	-0.0780766	0.0431962	-0.0679128	0.0743807	-0.0132823	-0.00906659	0.0803866	0.0058904	-0.00194903	-0.0457372	-0.0646789	-0.0674508	0.0228686	0.059135	-0.0147837	0.0205586	-0.112264	0.0452752	0.0125315	0.0124738	0.0790006	-0.00970183	-0.00877785	-0.0211361	-0.0528981	-0.0831586	-0.000555834	-0.0988663	-0.0896264	0.0321084	0.0364974	0.00667001	-0.0311845	-0.0609829	-0.164469	-0.057287	-0.0378833	-0.0817726	0.00172525	0.00733412	0.0114343	0.0716088	0.056594	0.0136288	-0.0817726	0.0845445	-0.0900884	-0.0535911	-0.114112	-0.0300295	-0.00223777	0.0850065	0.0637549	-0.0498951	0.0628309	0.0515121	-0.0316464	-0.101176	-0.0960943	-0.00242546	-0.0757667	-0.0716088	0.00534178	-0.00762287	0.11596	0.0195192	0.0401933	-0.0628309	-0.0147837	0.0401933	-0.0464302	0.0522051	0.00964408	0.0545151	0.0339564	0.0103948	-0.0979423	0.0891645	0.0508191	0.0358044	-0.0785386	-0.139522	0.0836205	-0.0771527	-0.0464302	-0.0234461	-0.0692988	0.0043023	-0.00779611	0.137674	0.0332634
Greenson	0.0469217	-0.0222794	-0.0340942	-0.0273429	0.0627873	-0.0621122	0.0492847	0.0843915	0.145153	0.0604243	0.0179754	-0.0891175	0.029537	0.0823661	-0.0847291	0.016372	0.0641376	0.0860794	0.0388201	-0.0317312	0.108021	-0.0553608	0.00373433	0.030381	-0.0161188	0.0193257	-0.048272	0.0307185	-0.0378074	-0.0823661	0.0039664	-0.00430397	-0.0958688	-0.0665005	0.00286931	0.00337566	0.0319	0.0308873	-0.056036	-0.0634624	0.0356132	0.0313937	-0.0050213	-0.045909	0.0654878	0.0173847	-0.0580614	-0.00419848	0.0293683	0.0519852	0.00381872	-0.0590741	-0.194438	-0.0665005	-0.0644751	-0.0540106	-0.021773	-0.0783153	-0.0823661	-0.000100874	0.143128	0.107346	0.0641376	0.115448	0.0904677	0.0489471	-0.0173003	-0.0379762	0.12895	-0.0305497	0.0132495	0.0258238	0.0156968	-0.0125743	-0.0931683	0.133001	-0.0475968	-0.0337566	0.0550233	0.0391577	-0.00658254	0.0263302	0.0264989	-0.0109709	-0.021773	0.0681884	0.0843915	0.153255	-0.084054	0.000822817	-0.0843915	-0.0300434	0.0756148	0.079328	-0.0985693	0.0546857	0.120849	0.0489471	0.0140934	-0.0681884	0.000220209	-0.0335878	0.000300645	-0.0773026	0.042027	0.0374698	-0.0546857	0.0658254	-0.0992444	0.0442212	0.0675132	0.0191569	0.0049791	0.0132495	0.105321	-0.0128275	0.0135026	-0.0513101	0.0641376	-0.0167095	-0.0221106	0.0651503	0.0170471	0.0638	0.0118148	-0.0884423	-0.0813534	7.31833e-05	0.0132495	0.0448963	-0.100595	-0.0465841	-0.0219418	0.0239672	0.0516476	-0.103295	-0.0281868	0.00286931	0.00987381	0.0610995	-0.073927	0.0749397	-0.118148	-0.00510569	-0.0300434	0.0203384	-0.0513101	0.0317312	-0.0938434	0.0177222	0.109371	-0.0570487	0.0462466	0.029537	0.0843915	0.0408455	-0.0408455	0.0378074	0.0438836	-0.0243048	-0.0069623	-0.000690956	-0.0259926	0.081691	-0.000561731	-0.0678508	-0.0164563	0.00818598	-0.0312249	0.00919868	0.0479344	0.00220473	-0.120174	-0.0445587	0.0243048	-0.0891175	0.0157812	0.00856574	-0.141778	0.0178066	-0.0305497	0.0312249	0.0837164	-0.0101692	0.0317312	0.000160871	-0.0340942	-0.0465841	0.0398328	-0.0332503	-0.0746021	0.124899	-0.00239461	0.0617746	0.024136	0.140428	0.0708889	-0.132326	0.0234608	0.0132495	0.0264989	-0.0248111	-0.0210979	-0.0205915	0.025655	-0.0864169	0.0386513	0.00428287	-0.100595	-0.0675132	-0.0445587	0.0177222	0.10262	-0.00708889	0.0418582	0.00243681	0.0283556	-0.0231233	0.042027	-0.0239672	0.0472593	0.0519852	0.0180598	-0.0337566	0.125575	-0.00371323	0.0860794	0.0577238	0.043546	-0.00375542	0.0416894	-0.00780622	-0.0762899	-0.0688635	-0.0180598	-0.048272	-0.0137558	0.0190725	-0.0394952	-0.0540106	0.0332503	-0.143128	0.0200852	-0.0393265	0.0391577	0.0227857	0.028018	0.0604243	0.0597492	-0.0421958	0.0148529	0.0499598	-0.024136	0.0783153	-0.0149373	0.0215198	-0.0685259	-0.048272	0.0201696	-0.0627873	-0.00877672	-0.0315624	-0.0924931	0.0317312	0.0234608	0.0486095	-0.025655	-0.00268998	-0.00578082	-0.0786529	0.0810159	-0.00312249	0.0506349	0.0373011	0.112747	-0.00936746	0.0783153	-0.0298746	0.0183974	-0.0244735	-0.00478922	-0.00174058	-0.000358664	-0.0351069	-0.00734206	-0.0129119	-0.0291995	-0.024136	0.0114772	-0.0227857	-0.0248111	-0.0877672	-0.081691	0.0361196	-0.0486095	-0.00112346	-0.0692011	-0.0550233	0.0366259	-0.0410143
Y1A	-0.0601688	0.00968382	-0.0397682	-0.0207879	0.00942559	-0.0237576	0.0555206	-0.104327	-0.00884456	0.0129763	-0.0121371	-0.0268565	0.0353782	0.0136865	0.0101357	0.0521635	-0.0444165	-0.0377023	0.0596523	-0.0205297	-0.0389935	-0.0228538	0.0661082	0.0075211	0.0516471	-0.0198841	0.0171726	-0.0162688	0.0836682	0.0206588	-0.0805694	-0.0601688	0.0565535	0.0254362	-0.0167853	-0.0759212	-0.0500976	-0.0428671	-0.0204006	-0.0996788	-0.0542294	-0.0165271	0.0294388	0.165271	0.0253071	-0.0258235	-0.0277603	0.0117497	-0.0184638	-0.0122016	-0.00671412	0.0405429	0.0268565	0.0174309	-0.0211753	0.0581029	0.0123953	-0.00671412	0.0728223	-0.00295357	-0.086767	-0.0764376	0.0187221	-0.069207	0.0278894	0.0645588	-0.0469988	0.0228538	-0.0325376	0.0138156	-0.069207	-0.0250488	0.0122662	0.0426088	0.0304718	-0.129118	0.00629448	-0.0485482	-0.0503559	-0.0324085	-0.0143966	0.0537129	-0.00635904	-0.069207	0.00377669	-0.0278894	-0.0441582	0.0216918	0.0586194	0.151842	0.0534547	-0.180765	-0.107942	-0.0976129	0.0202715	-0.0630094	-0.0420923	-0.0748882	0.0475153	0.0387353	0.183864	-0.0862506	-0.0934812	0.00188835	-0.0224665	-0.0204006	0.0743718	0.0624929	0.0996788	0.0439	-0.0475153	0.0503559	0.00994206	-0.0216918	0.0204006	0.0330541	-0.0259526	0.0189803	0.0262109	-0.0637841	-0.0495812	-0.142546	-0.019755	0.0872835	-0.0273729	-0.0166562	-0.162172	0.0451912	-0.00865088	0.106909	0.0111687	0.121887	-0.0242741	-0.0898659	0.0671412	0.0228538	-0.0133637	-0.0697235	0.0371859	0.0697235	0.0738553	0.0165271	-0.0273729	-0.00652044	-0.0593941	0.014784	0.0234994	0.0182056	-0.0712729	-0.0805694	0.0810859	0.0431253	-0.0392518	-0.00648816	0.0599106	-0.0852176	0.0472571	-0.0441582	0.00187221	-0.0686906	-0.0769541	0.0976129	0.05707	0.0246615	0.0970965	-0.069207	0.0883165	0.0277603	0.00185607	-0.104327	0.0193676	-0.0258235	0.0119434	-0.0712729	0.0308591	-0.00137994	-0.0146549	-0.0431253	-0.01756	-0.0743718	-0.0340871	0.0420923	-0.127568	-0.0581029	0.0218209	0.0233703	0.0769541	-0.0366694	-0.0236285	-0.0410594	-0.0519053	0.0655918	-0.03512	-0.00839265	-0.0374441	0.0841847	0.0914153	0.069207	0.0325376	-0.0733388	0.0795365	0.015365	-0.0286641	-0.00162204	0.0356365	-0.0392518	0.0201424	-0.102778	-0.0236285	0.00968382	0.0433835	0.03512	-0.02195	0.0161397	0.0269856	-0.0490647	-0.00994206	-0.03512	-0.04829	-0.0723059	0.0206588	0.00619765	0.0236285	-0.0759212	-0.0513888	-0.00364757	-0.0413176	0.0666247	0.0287932	-0.115689	0.00710147	-0.0560371	-0.0361529	-0.0593941	0.102778	0.0166562	-0.0852176	-0.0111687	0.0309882	-0.0165271	0.00994206	-0.0185929	-0.0632676	-0.0498394	-0.0010975	-0.170435	-0.0156232	-0.0167853	0.0192385	0.0182056	-0.00359915	-0.0493229	-0.0233703	0.0265982	0.0898659	0.0251779	0.0748882	-0.0588776	-0.122404	-0.0914153	-0.0209171	0.0400265	-0.0575865	0.0134928	0.126535	0.0170435	0.0619765	-0.12292	-0.012589	0.0883165	-0.02634	-0.0124599	0.0325376	0.0053261	0.0888329	-0.0707565	0.109492	0.0413176	-0.0213044	0.0426088	-0.0717894	0.0888329	0.0205297	-0.0229829	0.0929647	0.0415759	0.0640423	0.0220791	0.0534547	0.0493229	-0.0488065	0.0495812	-0.0210462	-0.00929647	0.0245323	-0.0156232	-0.102778	0.0387353	7.51505e-05	-0.0676576
Kathy_Dehner	-0.0180293	-0.00741948	-0.0991243	-0.048375	-0.00830982	-0.0783497	-0.0644011	0.0323489	0.0105357	0.112776	-0.0694464	0.0268585	-0.0106841	-0.0243359	0.028936	0.0614333	0.0641043	-0.0563881	0.0587623	0.00897758	-0.00439604	-0.103279	-0.00823563	-0.00306054	-0.000867152	0.000338514	-0.0028194	0.128802	0.0492654	-0.0192907	0.0324973	-0.0277489	0.00934855	-0.143641	0.0599494	-0.107434	-0.00145607	0.0842853	-0.0638076	-0.0765691	-0.014839	-0.0448137	0.0375426	0.0247811	-0.105653	0.0884402	0.0143938	-0.00363555	-0.0991243	0.0186971	0.0356135	0.03502	-0.0106841	-0.0777562	-0.0394717	0.107434	-0.0122421	0.0232972	-0.0178068	-0.0655882	-0.0436266	0.0465944	-0.0560913	-0.0166196	0.0102389	-0.0736013	-0.0424394	0.00111292	0.0210713	-0.00119639	0.01751	-0.0572784	0.126428	0.0614333	-0.0566849	0.0278973	0.0866596	-0.0146164	0.0608398	0.0373942	-0.0126873	-0.057872	0.043033	-0.0581688	0.0415491	-0.137706	-0.00641785	0.0543106	0.111589	-0.124647	-0.0119454	-0.0920016	0.00849531	0.037691	-0.142454	0.0489686	-0.0222584	0.048375	-0.0126131	0.0673689	-0.108028	-0.127022	0.0207746	-0.0100163	0.0955629	0.0131325	0.0569816	-0.0813175	0.0270069	0.0221101	0.00812433	-0.0673689	0.045704	0.0109066	0.0135035	-0.0454072	0.00187342	-0.0854724	0.0836918	-0.0409555	0.00309763	0.0638076	-0.0682592	-0.0280456	0.0287876	0.00376539	-0.00920016	0.0218133	0.00234641	0.00667753	-0.00352425	-0.10506	-0.0560913	-0.0525299	-0.0189197	0.0519364	0.0135035	0.0218133	0.0161745	0.080724	0.0160261	0.0162487	-0.0284908	-0.0427362	0.080724	0.0418459	0.0200326	-0.135331	-0.0382845	0.0991243	0.0560913	-0.0566849	-0.00196616	0.112776	0.0931887	-0.0581688	0.0872531	0.0854724	-0.0507493	0.00465573	-0.0445169	0.0221101	0.103873	0.0373942	-0.0635108	-0.0373942	-0.0276005	0.121086	0.151357	0.0848789	-0.0771626	-0.108621	-0.00764207	-0.122867	0.0388781	-0.0363555	0.0234456	-0.0451105	-0.0197358	0.0471879	-0.0474847	-0.0902209	0.0715238	-0.0278973	0.0750852	-0.0997179	0.043033	-0.000517045	0.0596526	-0.014839	-0.0480783	0.051046	-0.0465944	0.00957113	-0.0480783	-0.0119454	0.063214	-0.0359103	-0.0507493	-0.0373942	-0.0516396	0.00805014	-0.0195874	-0.045704	0.0347232	0.00291215	0.0596526	0.00246698	0.00823563	-0.127615	0.0221101	-0.0250779	-0.0253746	0.0356135	0.0181035	0.0646979	-0.017139	0.0569816	-0.0284908	-0.0756787	0.0274521	0.0736013	0.00552751	-0.0682592	-0.0596526	-0.0388781	0.00708561	0.023594	0.0123163	0.0789433	-0.0400652	0.0756787	-0.0240391	0.00291215	-0.0920016	0.00367264	0.0967501	-0.0955629	-0.0338328	0.0694464	0.0203294	-0.0973436	0.0522332	-0.0327941	0.00819853	-0.0105357	0.0442201	-0.011426	0.00645495	-0.121086	-0.0997179	-0.00205891	-0.124647	0.108028	-0.0206262	0.0166196	0.0925952	0.00890338	-0.0531235	0.0189197	-0.00158591	0.00443314	-0.0250779	-0.0379878	0.0206262	0.0163229	-0.0227036	0.00623237	-0.0400652	-0.019439	-0.0641043	0.106247	0.0191423	0.0258198	-0.0140228	-0.080724	-0.0161745	-0.104466	0.0222584	-0.0108324	-0.0925952	-0.0460008	0.0176584	0.0694464	-0.00805014	-0.048375	-0.000156505	-0.0118712	0.0468911	-0.0433298	-0.063214	-0.0391749	-0.0382845	0.0878467	-0.0460008	-0.0528267	-0.0608398	-0.00730819	0.0143196	0.0129099
anti_Westernism	0.109291	0.00663864	0.086467	0.0693491	-0.114119	0.0331384	-0.0156913	-0.0443308	0.0653989	0.0842724	-0.0939286	-0.0397221	0.0103695	0.0230432	-0.0106986	0.0197513	-0.0342356	0.0952453	0.101829	-0.121142	0.0689102	0.0218362	0.0869059	0.0680324	-0.0209584	0.0280908	-0.0117411	0.0294075	0.0445502	-0.00477324	0.0194221	-0.0173373	-0.00894297	0.0926118	0.0123994	0.070227	-0.00176939	0.0513535	0.0322605	0.00746162	0.122019	0.00696783	0.0419167	0.0235919	0.0168984	-0.0414778	-0.0553037	-0.059254	-0.00271581	-0.0189832	-0.0583762	-0.00215344	-0.0684713	0.00362108	0.0601318	0.091734	-0.0252378	0.000159451	0.00147449	-0.0658378	-0.0160205	0.0719826	0.0366497	-0.00493783	-0.0693491	0.0273227	-0.00548648	0.00403256	0.0178859	0.043014	-0.0579373	0.0759329	0.0386248	0.0390638	-0.048281	-0.201903	0.0509146	-0.0166789	0.0566205	0.0728605	-0.0434529	0.0522313	-0.0478421	-0.0401611	-0.0353329	0.00680324	-0.0833945	0.0921729	-0.0579373	-0.0351135	-0.051134	-0.103585	-0.127286	-0.00378567	0.0090527	-0.043014	0.0155816	0.0177762	-0.00811999	-0.0048281	-0.00987567	0.0768107	-0.00367594	0.0768107	-0.0105889	-0.0463059	-0.0414778	0.0134419	0.00606256	-0.0515729	-0.157133	-0.114119	-0.0196416	0.0825167	0.0260059	-0.00433432	-0.0574983	0.00322331	-0.018654	0.0546454	-0.0209584	-0.0253475	-0.0100403	-0.00300385	-0.0566205	-0.0141551	-0.0522313	-0.00595283	-0.111046	-0.0877837	0.0359913	0.0375275	0.0588151	0.0438919	-0.0165692	-0.0399416	0.064521	-0.00299013	-0.0273227	0.0357719	0.0493783	-0.0181054	0.0474032	0.00633689	0.0627654	-0.0160205	-0.0213973	0.108413	0.0110827	-0.0264448	0.107535	-0.0719826	0.0247989	0.00359365	0.00938188	-0.0820778	-0.0526702	-0.102268	-0.0199708	-0.127286	-0.00227689	0.00425202	-0.0978788	-0.0298465	0.0697881	-0.0322605	0.086467	-0.00713243	0.037747	0.086467	-0.0667156	0.0618875	-0.0373081	-0.0381859	0.0579373	0.0088881	-0.0264448	-0.104024	-0.043014	-0.0711048	-0.0500367	-0.0408194	-0.0266643	-0.0441113	0.101829	0.0535481	0.00811999	0.0273227	-0.0205194	0.125531	-0.0302854	0.0333578	-0.00309986	0.0353329	-0.0706659	-0.0201903	-0.0175567	0.181712	-0.00480067	0.00223574	0.0711048	0.0115765	0.0478421	-0.0847113	0.00578824	-0.10534	0.0291881	-0.0122349	-0.0353329	-0.0116862	-0.0601318	-0.0198611	-0.00921729	0.132553	-0.120264	-7.92968e-05	-0.097001	0.0384054	0.0355524	0.0161303	-0.0102049	-0.0421362	-0.00910756	-0.0183249	-0.0750551	-0.04872	0.110169	-0.0276519	0.0302854	-0.0209584	-0.0741772	0.0253475	0.045867	0.0335773	0.018654	-0.0217265	0.00182426	0.0148135	0.119386	-0.0211778	0.0596929	-0.0498173	0.0476227	0.0610097	0.0359913	0.0048281	-0.0189832	0.00381311	-0.00603513	0.0502562	0.0768107	-0.0117959	-0.0326994	0.045867	0.0238113	-0.0449892	0.034894	-0.0166789	-0.0381859	-0.0258962	0.0640821	-0.0222751	-0.0291881	0.0610097	-0.0498173	-0.0077908	0.00839432	-0.124653	-0.0467448	-0.0326994	-0.0741772	0.0557427	-0.00139905	-0.0610097	0.0425751	0.0579373	-0.0253475	0.0833945	-0.0956843	0.086028	-0.0895394	-0.00855891	-0.0253475	-0.0912951	0.0368692	-0.0153622	-0.026774	0.075494	-0.00523959	-0.0614486	-0.0983178	0.0115216	-0.0388443	-0.00356621	-0.100073	-0.110169	0.122019	-0.0408194	0.0632043	0.133431
Searight	0.0768314	0.0228712	-0.051881	-0.0273266	0.0784155	-0.0376236	-0.0157425	0.00752472	-0.0506929	-0.0716829	0.0669304	0.0756433	-0.0649502	-0.0665344	0.0435642	-0.0633661	0.062574	-0.108514	-0.0586136	0.0792076	0.0756433	-0.0871284	0.0120297	0.0320791	0.0998016	0.00194306	-0.105346	-0.0216831	-0.00356434	-0.0104455	-0.0123267	-0.0954452	-0.00226484	-0.0550493	0.00707918	-0.0546533	0.0439602	0.0657423	-0.00698017	-0.0554453	0.0295048	-0.0405939	-0.031683	0.0324751	-0.0441582	-0.0332672	0.0445543	-0.0677225	-0.0287128	0.0653463	-0.0405939	-0.100594	-0.072475	-0.0693067	-0.0293068	-0.0514849	-0.0199009	0.0433662	-0.0162376	0.0113861	-0.0566334	0.0368315	-0.113267	0.0171286	0.093465	0.00574255	-0.0112376	0.0134653	0.0708908	0.0586136	0.0399998	-0.000971531	-0.020495	0.125148	-0.0629701	-0.010099	0.0152475	-0.0160395	0.140197	0.0839601	-0.0649502	-0.0122277	-0.00591582	-0.0299009	-0.0346533	-0.062178	-0.0534651	0.0578216	0.0328712	-0.157623	0.0130693	-0.0776235	-0.0859403	-0.0165346	0.00826729	0.0546533	0.135445	0.0360395	0.0453464	0.0352474	-0.0601978	-0.073267	0.0344553	0.0193069	-0.0271286	-0.0704948	-0.0546533	-0.0214851	0.0056683	0.0142574	-0.0226732	0.0334652	0.0370296	0.0100495	0.00303217	0.0467325	0.0859403	-0.0348513	0.051881	-0.0542572	-0.0257425	0.126732	0.021188	0.00480196	-0.0124752	-0.0132673	-0.0510889	-0.0704948	0.0281187	0.0756433	-0.0958412	0.00460394	-0.0394058	0.0697027	0.00194306	0.0199009	-0.0334652	-0.0617819	0.102178	-0.0117821	-0.135445	0.073267	0.010792	-0.0538612	-0.0605938	0.021089	-0.0283167	0.0184158	0.00797027	0.0570295	0.0463365	0.0744552	-0.0183168	0.0788116	-0.0499008	0.115643	0.0283167	0.0673265	-0.0863363	-0.0115346	-0.0974254	0.00871284	-8.16055e-05	0.0673265	-0.103762	-0.0142574	0.00413365	-0.0246534	0.0649502	-0.0463365	-0.0318811	0.0304949	-0.00534651	-0.0578216	-0.0546533	-0.0143564	0.0578216	0.00757423	0.00246286	-0.0504949	-0.0538612	0.0172277	0.102178	0.0657423	0.0241583	-0.0356434	0.12198	0.118811	-0.0249504	-0.0251484	0.0324751	0.0641582	-0.0213861	-0.0475246	-0.0823759	0.0194059	-0.0287128	-0.0811878	-0.00326731	0.0132673	-0.0423761	-8.93406e-05	-0.0574255	0.101386	0.0188118	-0.0855442	0.000258353	-0.0697027	-0.0669304	-0.052277	-0.0380197	-0.0141584	-0.0598017	0.0538612	-0.0338613	0.0665344	0.062178	-0.0360395	0.0196039	-0.0918808	0.072871	0.0473265	-0.0150494	-0.0685146	-0.0220791	0.0295048	-0.00866333	0.107722	-0.0231682	0.0489107	-0.0867323	0.00324256	-0.073267	0.0558414	-0.0772274	-0.00722769	0.000391397	0.00495048	-0.0155445	-0.0219801	0.0994056	0.0500988	0.0118316	-0.0950491	-0.0613859	0.0744552	-0.0197029	0.0197029	-0.0195049	-0.0562374	0.102178	0.0133663	-0.0218811	0.0582176	0.0736631	-0.0641582	-0.0364355	-0.0153465	0.0169306	-0.0132673	0.0176237	0.00066522	0.010891	-0.0966333	0.0126732	0.0120297	-0.00757423	0.148118	0.0489107	-0.0445543	-0.0475246	-0.0338613	-0.0550493	0.114059	0.158415	-0.0188118	-0.0279207	0.020495	-0.0633661	-0.0222771	0.000615715	-0.031485	0.0950491	0.00193069	-0.126732	-0.0220791	0.021089	0.0378216	-0.0328712	0.00283415	-0.0538612	-0.0336632	-0.12198	0.0685146	-0.0322771	-0.0253464	-0.072475	-0.0843561	0.121188	0.072871
Eure	0.0341079	-0.0128335	-0.00389743	-0.056502	0.0397926	-0.0254948	-0.0523677	0.0235999	-0.038759	-0.0311794	0.0341079	0.0050602	-0.0671822	-0.057191	-0.000441422	0.0585691	0.0332466	0.0253225	-0.0730392	0.0104649	0.0223941	-0.0076226	0.0130058	0.0074934	-0.010508	-0.0475444	-0.0909544	-2.72524e-05	-0.0768289	0.0172262	0.0378977	0.00805326	-0.0206715	-0.064426	0.0616698	-0.117827	0.133675	0.0585691	0.049267	-0.0909544	0.0444436	0.00167956	-0.0609808	0.0706275	0.049956	-0.0422042	0.0155036	0.00680435	-0.00809632	0.0342802	-0.024978	0.00540472	-0.0130058	0.00510327	0.0160204	-0.0747618	-0.0720056	0.0540903	-0.10887	0.00589998	0.0265284	0.0451327	-0.0471998	-0.0506451	0.0726946	-0.0341079	-0.0232554	-0.0778625	0.00654596	0.168128	0.0751063	0.00658903	0.0168817	0.063737	-0.0651151	0.0937106	0.0950887	-0.0179153	0.0313517	-0.035486	-0.0978449	-0.042721	-0.0403093	0.00409123	0.0771734	0.0223941	-0.00207791	0.0437546	0.0272174	-0.0726946	-0.0888873	-0.0482334	-0.117827	0.0382422	-0.0857866	-0.00719194	0.084753	0.031524	-0.0720056	0.042721	-0.039448	-0.0401371	-0.0279065	-0.0145562	-0.0416874	0.0113693	-0.0291123	-0.0475444	-0.0121445	0.000812862	-0.0292846	-0.00938829	0.0902654	0.00852698	0.0837194	0.00861311	-0.0616698	0.135054	0.0152452	0.0527122	-0.0205853	0.0268729	0.0422042	0.00225017	0.0730392	-0.0489224	-0.0193795	0.0380699	-0.0401371	0.099912	-0.0428933	0.0468553	-0.0434101	-0.0173123	-0.00527553	0.00445728	0.0534013	0.0113693	0.0716611	0.0130919	-0.0337634	0.042032	-0.0454772	0.0503005	-0.150902	0.0284233	-0.0119722	-0.0287678	-0.00149653	-0.0275619	-0.104735	-0.0360028	0.0267006	0.000721348	-0.0404816	-0.0227386	0.115071	0.0468553	-0.0123167	-0.0143839	-0.0985339	0.0809632	-0.02894	0.0888873	0.0105941	-0.140566	-0.028251	-0.0337634	0.0971558	0.0895763	-0.049956	0.0216189	0.0260116	-0.124029	0.00396203	0.0265284	0.0346247	-0.0537458	0.0375531	-0.0468553	-0.0136087	-0.0113693	0.0713165	-0.0244612	-0.0260116	-0.0120584	0.10887	0.111626	0.0253225	-0.00135656	0.0299736	0.0375531	-0.104735	-0.0167094	-0.161926	0.0651151	-0.0316962	-0.024289	0.0299736	-0.0167094	-0.0792406	0.0229109	-0.049956	-0.0230831	-0.0090007	-0.0647706	0.0143839	-0.0747618	0.0291123	0.0050602	-0.0578801	0.00205638	-0.0230831	-0.00757953	0.0334189	-0.0323853	-0.0415152	-0.0795851	0.0192072	0.0301459	0.084753	0.0678713	0.0323853	-0.0785515	0.0279065	0.0740727	0.0320408	0.0888873	-0.0275619	-0.0211882	-0.000936675	-0.0174846	-0.0065029	-0.0475444	-0.00450035	0.0623589	0.0943997	-0.0191211	-0.184665	0.0943997	-0.0792406	-0.0544348	-0.0401371	-0.0167956	-0.0630479	-0.0706275	0.00164726	0.0547794	-0.00220711	0.0606363	0.0335911	0.0108525	-0.0447882	-0.0664932	0.0744172	-0.164683	-0.0444436	-0.0384145	-0.0451327	-0.0795851	0.00204561	0.0516786	-0.0747618	0.0754508	0.0806187	-0.0120584	0.0823413	0.0506451	-0.00607224	0.0602918	-0.0132642	0.0204131	-0.0461663	0.084753	0.0148145	-0.0316962	-0.0592582	-0.0284233	-0.128163	-0.0527122	-0.00542626	-0.0544348	0.0678713	0.0334189	-0.0378977	-0.0778625	-0.0816523	0.0126613	-0.0609808	-0.024978	-0.00486641	0.0461663	-0.0895763	0.0422042	-0.00719194	-0.0950887	-0.10887	-0.114382	0.0422042	0.126785
NORTHLAND_EXPOSURE_ARTISTS_GALLERY	-0.0102171	-0.00310162	-0.0398069	0.0849214	0.00630276	-0.0258745	0.0310494	-0.0512182	0.0578527	0.0512182	-0.0177804	0.0330397	-0.0262726	0.0265379	-0.0711217	0.0179131	-0.0155247	0.10456	-0.00799456	-0.023088	0.0282629	-0.00739745	0.0240168	0.00915559	-0.0485644	-0.0366224	-0.0875752	0.11889	0.03848	-0.0512182	-0.0886367	-0.023088	-0.03848	-0.0299879	0.0155247	-0.0981904	0.0647526	-0.034234	0.00404704	0.0674064	-0.0189746	-0.000284039	0.0416646	0.0187093	-0.0253437	-0.130567	-0.124198	0.024813	0.0790831	0.0674064	-0.104029	0.0854522	0.0323763	-0.0126055	-0.0225573	0.108275	-0.0352955	-0.0790831	0.00955366	-0.108275	-0.0432569	0.0217611	-0.0827984	-0.0833292	0.00968635	-0.0634257	-0.0347647	0.0451145	0.0456453	0.0838599	0.00663449	-0.0684679	0.0379493	0.00895656	-0.108275	-0.088106	0.0360916	-0.0865137	0.0700602	0.0387454	-0.0570566	-0.15392	0.00129372	-0.0352955	-0.000563931	-0.0554643	-0.0536067	0.0976596	0.0960674	0.0155247	-0.0965981	-0.0923521	0.0131363	0.0149276	-0.0287937	-0.025211	0.139059	-0.00311821	0.0185766	-0.0732447	0.025211	0.00500904	0.0205669	-0.0283956	0.0295898	-0.0158564	0.0493606	-0.0104161	-0.0432569	-0.00481	-0.0358262	0.0222919	0.0605065	-0.0565258	0.101906	-0.00544028	-0.0179131	-0.0429915	0.103498	0.00573883	0.0045778	0.00510855	-0.0870445	0.00809407	-0.00816042	0.0138661	-0.142243	0.0285283	-0.00889021	0.0421953	-0.0246803	0.00349969	0.0330397	-0.0167853	-0.102436	-0.0110796	-0.0413992	-0.013667	0.0241495	0.158166	0.0121411	-0.0272014	0.00766283	-0.0451145	0.005772	0.0104161	0.034234	0.028661	-0.0891675	-0.0179131	0.0838599	-0.074837	0.00117762	0.104029	0.0294571	-0.0812061	-0.0344993	-0.0676718	-0.0443184	-0.0737755	0.000433315	0.0806754	0.0737755	0.00255428	0.0382146	-0.0403377	0.0339686	-0.0315802	-0.0472375	0.0918213	-0.0806754	0.0302533	0.0506875	-0.0843907	-0.0918213	-0.0334378	0.049626	-0.074837	-0.100313	-0.0432569	-0.132159	-0.000957854	0.0488298	-0.0631603	-0.0429915	-0.03848	0.0122075	0.0152593	0.0322436	0.0796138	-0.0626296	-0.000667595	-0.04193	-0.0323763	-0.0934136	0.0298552	0.00296893	-0.0896983	0.0567912	-0.122605	0.00137666	0.0261399	-0.00374849	-0.00590469	0.0143968	-0.0334378	0.0525451	0.0147286	-0.0408684	-0.0262726	-0.0469722	-0.065018	-0.0302533	0.115705	-0.072714	0.0514836	0.000406362	0.0459106	0.0245476	-0.0944751	-0.020965	0.101375	-0.0780216	-0.0163872	-0.0456453	-0.00358262	-0.0237515	0.0179131	-0.00447828	-0.04193	-0.0644872	0.0541374	-0.0753678	0.0668756	0.00136836	-0.00434559	0.074837	-0.0387454	0.0631603	-0.034234	0.0583835	-0.0411338	0.0480337	-0.0490952	-0.0010864	0.0214957	-0.0371531	0.108806	-0.0456453	-0.106152	-0.00474366	0.0801446	0.00290259	0.0329071	0.0817369	0.00696621	-0.00286942	-0.0992519	-0.0421953	-0.0838599	0.0456453	0.0129372	-0.00174155	-0.0139988	0.0559951	0.131097	-0.0780216	-0.0291917	-0.0261399	0.00150935	-0.0923521	0.0700602	-0.0684679	0.0421953	0.117298	0.0282629	-0.0559951	-0.0313148	-0.0843907	0.00792821	-0.0605065	0.00832628	0.00222255	0.0173824	0.0187093	-0.0261399	-0.00772918	0.0644872	0.0530759	0.109336	-0.0244149	-0.0289264	-0.143305	0.0764293	0.0411338	-0.0620988	-0.046176	-0.0301206	0.0655487	0.00908925
White_Spunner_Construction	-0.0619499	-0.0192045	-0.0704459	-0.0927479	-0.040887	-0.023541	0.0119475	0.0488519	0.0775259	0.0130095	-0.024249	0.0746939	0.0768179	-0.135228	-0.034515	0.0114165	-0.044073	-0.0782339	-0.026727	0.108324	0.027612	-0.112572	-0.019647	0.00730124	-0.00831899	0.0220365	-0.041418	0.0499139	0.027258	-0.00422587	-0.033276	0.00986774	-0.036639	-0.019293	0.0676139	-0.0541619	-0.00354	0.00396037	-0.03009	-0.043011	-0.152928	0.030798	0.0154875	0.0527459	-0.0467279	-0.0679679	-0.126024	-0.0147795	-0.044958	0.0516839	0.0140715	0.00601799	0.038055	0.0732779	0.00108966	0.032568	-0.0587639	0.03894	0.013452	0.0184965	-0.00111731	-0.0623039	-0.0573479	0.0184965	-0.0115935	-0.0690299	-0.0488519	0.00314175	-0.0463739	0.020886	0.016992	-0.026373	-0.027789	0.113988	0.041418	-0.0661979	0.0658439	-0.0828359	-0.00991199	-0.0499139	0.0103545	-0.0223905	-0.0644279	0.043719	0.035046	0.0126555	0.00367275	0.043188	0.0121245	-0.0612419	0.022833	-0.00526574	0.0126555	0.027081	-0.027435	0.0707999	0.0831899	-0.0870839	0.00356212	0.023364	-0.0160185	0.0158415	0.000121687	-0.0149565	0.0211515	0.0566399	0.0792959	-0.027081	-0.0615959	0.106908	-0.0523919	-0.02478	0.039117	-0.032745	-0.015045	0.0697379	0.00396037	0.012213	0.0732779	0.00107306	-0.0697379	-0.032745	-0.0467279	0.043719	0.032214	0.0913319	-0.1062	0.0612419	0.0722159	0.00282093	-0.00982349	0.0962879	-0.0881459	-0.0860219	-0.0591179	0.00285412	-0.0810659	-0.0647819	0.033099	0.00278775	-0.114696	0.041241	-0.03717	0.016284	0.0211515	-0.0757559	0.041949	0.019647	-0.0969959	-0.0573479	-0.015753	-0.126732	0.126732	0.0541619	-0.0523919	0.027081	0.0962879	-0.00592949	0.0605339	-0.0644279	0.041064	0.0853139	-0.00933674	0.00269925	0.00228994	0.0484979	-0.00173681	-0.026373	-0.0108855	0.00279881	0.026373	-0.015576	0.036462	-0.0623039	0.013983	0.0193815	0.01947	0.00294262	-0.119652	0.00907124	-0.0895619	-0.00765524	-0.0810659	-0.0197355	0.00898274	-0.101244	0.107616	0.043365	-0.021063	-0.0548699	-0.016461	0.0934559	-0.0700919	3.82002e-05	-0.028674	0.0615959	0.032568	-0.0661979	0.0158415	-0.034869	0.0700919	0.0647819	0.00497812	0.00118369	-0.10974	0.0169035	0.0111952	-0.0821279	0.1062	0.014514	0.0633659	0.00884999	-0.0516839	0.0548699	0.0725699	0.101244	-0.0513299	-0.0803579	-0.00396037	0.0789419	0.00105094	0.0874379	-0.0520379	0.0101775	0.00977924	0.0817739	-0.0810659	0.164964	-0.0460199	-0.0456659	-0.0156645	0.011505	-0.137352	-0.140892	-0.033099	-0.100536	0.027789	-0.0853139	0.00800924	0.0757559	-0.00641624	0.039648	-0.045312	-0.149388	-0.044604	-0.0711539	0.0188505	0.03186	-0.0545159	-0.0499139	-0.040179	0.041241	0.00650474	-0.002301	0.0899159	0.0502679	-0.0190275	-0.106908	-0.030444	0.00046739	-0.0206205	-0.00783224	-0.0619499	-0.0541619	0.0700919	0.0506219	0.0633659	-0.157176	0.00268818	0.122484	0.000483984	-0.018762	-0.101952	-0.0225675	-0.0158415	-0.033099	-0.032745	0.018585	0.0562859	-0.0690299	-0.0559319	-0.032214	-0.004071	0.118944	-0.0700919	0.024603	0.0495599	-0.014868	0.0771719	0.017169	-0.026727	-0.00236737	-0.0718619	0.0591179	0.0941639	-0.0683219	-0.0637199	-0.0509759	-0.047436	-0.026196
Euri	-0.0438995	-0.0749669	-0.0222874	-0.0759799	-0.0378211	-0.0861106	-0.0830714	-0.0884744	-0.106034	0.0776684	0.00937086	0.00153015	0.0024799	-0.00958191	0.0144362	-0.0108905	0.066187	0.114139	-0.0597709	0.145881	-0.0325869	-0.0905005	0.0864483	0.07159	0.00521307	-0.0672	0.00785126	0.0753046	0.00211055	-0.0597709	0.0115658	0.0302231	0.0332623	0.0430553	0.0415357	-0.0317427	0.00945528	0.02119	-0.0157869	-0.0261709	0.00219498	-0.030392	0.0105528	0.0241447	0.00428442	0.00360905	0.0295478	0.0334312	0.0472764	0.0574071	-0.0459256	0.101982	0.145881	-0.087799	0.013592	0.0803699	0.102657	-0.013592	0.0341065	-0.0786814	0.112788	0.052004	-0.0376523	0.0891498	-0.0295478	-0.0403538	-0.0550432	-0.0638231	0.056394	0.0449126	0.0270151	-0.0287035	-0.0540302	-0.0486272	-0.0820583	0.101307	-0.0297166	-0.0129166	0.00983518	-0.0156181	-0.0265086	-0.0648362	0.0170533	-0.022794	0.0462633	-0.0979297	0.0152804	0.142505	0.0678754	-0.217471	-0.00747136	-0.0315739	-0.0638231	-0.00633166	-0.154661	0.072603	0.0408603	0.0156181	-0.0103417	-0.0732784	0.0146895	0.00937086	-0.0361327	0.00751357	0.0965789	0.00327136	-0.0110593	-0.093202	-0.0688885	0.0587578	0.0285347	0.0322493	0.0107216	-0.0191638	-0.0438995	0.00987739	-0.111437	-0.0840845	0.0183196	-0.0123256	0.0945528	0.00637387	0.0445749	-0.0244824	-0.0275216	0.0129166	-0.0121568	0.0381588	-0.0154493	0.0246513	-0.0709146	-0.0459256	-0.0776684	0.107385	0.0369769	-0.0486272	-0.0570694	0.052004	-0.00426332	-0.0308985	-0.0442372	-0.0709146	-0.0925267	-0.046601	0.0332623	-0.00818895	0.000796734	0.00289146	-0.0776684	-0.0161246	0.0793568	-0.0479518	-0.0746292	0.0992804	-0.0577447	0.10806	-0.0114814	-0.0185729	0.0363015	-0.0415357	0.0356261	-0.0119035	0.0121568	0.00675377	-0.050991	-0.0332623	0.0503156	-0.0749669	0.0452503	0.0459256	0.000717588	0.0119035	0.0503156	-0.0614593	0.0042	0.0739538	0.0084	-0.0567317	0.0574071	0.0854352	-0.119542	-0.0692262	0.0125789	-0.0739538	-0.0584201	-0.126971	0.0191638	-0.0364704	-0.0651739	-0.00204724	-0.0344442	0.0204302	0.0776684	-0.0430553	-0.0310673	0.0395096	0.0655116	-0.0204302	-0.0526794	-0.0847598	0.0312362	0.00396784	0.0108905	0.082396	0.0336	-0.0739538	-0.0263397	0.0140985	-0.116165	-0.00628945	0.0742915	-0.115489	0.00348241	0.0361327	0.00835779	0.0820583	-0.0776684	-0.0837468	-0.0672	-0.035795	0.0810453	0.0972543	-0.0486272	-0.00470653	0.072603	0.0116503	0.0506533	0.0248201	0.0739538	0.0216121	-0.0959036	0.00363015	-0.0884744	0.106034	-0.0992804	0.000775628	-0.07159	-0.0283658	-0.00489648	0.0651739	-0.0550432	-0.0584201	-0.02119	-0.0590955	0.0682131	0.0124945	0.0334312	-0.0634855	0.0553809	-0.0364704	-0.0111437	-0.0364704	0.00780905	0.045588	0.0810453	-0.000280967	0.0449126	0.0567317	-0.0857729	-0.0560563	0.0597709	0.0229628	0.00289146	0.0459256	0.0817206	0.0438995	-0.082396	-0.0570694	-0.00540302	0.0493025	0.0611216	-0.0273528	-0.0486272	-0.00561407	0.00700704	0.0780061	-0.0722654	0.00590955	0.00671156	-0.0324181	0.0557186	0.00924422	-0.00873769	-0.0413668	0.0152804	0.0418734	-0.00899096	0.0756422	0.0476141	-0.00599397	-0.0202613	0.0211055	0.0165467	0.0305608	0.109411	-0.0844221	-0.0675377	-0.0145206	-0.0251578	-0.0327558
Salpietro	-0.0665996	-0.0536497	-0.0680796	-0.00293686	-0.0223849	-0.0640097	0.0614197	-0.0191474	0.0862095	0.0310798	-0.0233099	-0.0780696	-0.0932395	-0.0156324	0.00118515	0.141339	0.103599	0.0669696	0.0199799	0.105819	-0.0599397	0.0099437	0.0249749	-0.00358436	0.0865795	0.0514297	-0.0984195	-0.0136899	-0.0353348	-0.0107299	0.0662296	-0.0392198	0.0521697	0.00171124	0.0176674	-0.0984195	0.0141524	0.0791796	-0.0214599	-0.0290448	-0.0939795	-0.0270099	0.108039	-0.0503197	-0.0651196	0.00813995	0.0379248	0.0212749	0.0610497	0.00633622	0.0357048	0.0865795	-0.0462497	0.0121174	-0.0264549	0.0558697	-0.0584597	-0.0251599	-0.205719	0.0212749	-0.0536497	0.00638246	-0.0769596	-0.00980495	0.0253449	0.0191474	-0.0277498	-0.0132274	0.0969395	0.0408848	0.0270099	-0.0017228	0.0614197	0.0221999	-0.106559	0.0133199	0.00393123	-0.0020003	0.0124874	0.164279	-0.0680796	0.0880595	-0.105079	-0.0499497	-0.125799	-0.0332998	-0.0213674	0.0211824	-0.0455098	-0.0281198	0.00800121	-0.0558697	-0.126539	0.0884295	-0.102859	0.00753871	0.0484697	-0.0558697	0.00135281	0.0529097	-0.0543897	-0.0921295	-0.0255299	-0.0157249	0.0340398	0.0046481	-0.00197718	-0.0202574	0.0242349	0.0130424	0.0640097	0.0037231	0.112479	0.0288598	-0.0773296	-0.0223849	0.0038156	-0.0514297	0.0669696	0.0232174	-0.0141524	0.0310798	-0.0097587	-0.0247899	-0.0347798	-0.0780696	-0.133199	-0.0141524	0.00309873	0.0554997	-0.0283048	-0.00749246	-0.0480997	-0.0577197	-0.0114237	-0.0392198	-0.0366298	-0.0196099	0.0213674	0.0688196	0.0976795	-0.00878745	-0.0154474	-0.00201186	-0.0442148	-0.0233099	-0.0347798	0.0469897	0.0299698	0.120619	0.0214599	0.0449548	0.0506897	0.00524935	-0.0227549	0.120619	0.0521697	0.0107762	-0.0101749	0.00971245	-0.112479	-0.124319	0.0732596	0.0283048	-0.0895395	-0.0484697	0.0238649	-0.0456947	0.0876895	-0.0408848	-0.0584597	-0.0297848	-0.00887995	-0.0869495	0.0230324	-0.122099	0.0895395	0.0281198	0.0201649	0.0442148	0.0277498	0.0517997	0.0832495	-0.0625297	0.0340398	-0.0536497	-0.0249749	0.0134124	-0.0714096	-0.0906495	0.0213674	0.0279348	0.0147074	-0.0242349	0.0573497	-0.0395898	-0.0529097	-0.0251599	0.0392198	-0.00293686	0.000728433	-0.0499497	-0.0227549	0.00998995	0.0223849	-0.0223849	0.0451398	-0.00504122	-0.0118399	-0.101379	-0.0266399	-0.0869495	-0.0281198	0.0082787	-0.0566097	-0.0873195	0.0547597	9.90034e-05	0.0187774	0.0595697	0.0307098	0.0928695	0.101379	-0.0836195	-0.0236799	0.0227549	-0.0332998	-0.0442148	0.0332998	0.0310798	-0.0566097	-0.00813995	0.00832495	-0.165019	0.0165574	0.0643796	0.0109149	0.0303398	0.0253449	-0.00619747	-0.0573497	-0.0865795	-0.0529097	0.0318198	0.00887995	-0.0303398	-0.00309873	0.0640097	0.0610497	-0.00633622	0.0825095	-0.00413935	-0.0677096	-0.0499497	0.0780696	0.0610497	-0.0373698	0.0158174	-0.0135974	-0.0183149	-0.0540197	0.0869495	0.0558697	0.0850995	0.00513372	-0.0540197	-0.0677096	0.108779	0.0754796	0.0258999	-0.0514297	-0.110999	-0.0369998	0.0843595	0.0423648	-0.0924995	0.00263624	0.0153549	-0.00647496	0.0584597	0.0621597	0.0388498	0.0802896	0.0998994	-0.0209049	-0.0165574	-0.0234024	-0.0236799	0.0484697	0.0331148	0.0202574	-0.00497185	-0.0725196	0.0369998	-0.0780696	-0.0495797	-0.0438448	-0.143559	-0.0643796	0.0323748
Euro	0.0364333	-0.0720027	0.027649	0.0205928	-0.0518419	-0.0178567	0.0154806	-0.0371534	0.025921	0.0383054	-0.0950435	0.000384764	0.0306731	-0.0256329	-0.0766108	-0.0168486	-0.0599062	-0.0236169	-0.00342013	-0.0688345	0.0653784	0.0613463	0.0134645	-0.0179287	0.0145445	0.0699866	-0.0408975	-0.0478098	0.0676825	0.0624983	-0.0351373	-0.0498258	0.0053282	-0.081795	-0.0354253	-0.0367214	-0.0027361	-0.027361	-0.0406095	0.0303851	0.0590422	-0.0478098	0.156678	0.0385934	0.0231849	-0.0432016	0.00478818	0.0512659	0.0426256	0.0938915	-0.0938915	0.0668185	0.0101524	0.0408975	-0.00460817	-0.00252009	-0.0123845	-0.0335532	0.00329412	-0.0728667	-0.0174966	0.000208133	0.0027901	-0.0601942	0.0342733	-0.167046	0.0197287	-0.00081903	0.0777629	-0.0361453	-0.0944675	-0.05357	-0.025921	0.0933155	-0.0027901	-0.0182167	0.0584662	-0.0211688	-0.0460817	0.025921	-0.0990757	-0.10138	-0.0501139	0.0360013	0.150918	0.0696986	0.026785	-0.00195307	-0.00619223	0.0130325	0.0319692	-0.134213	-0.100228	0.0645144	-0.0760348	-0.0650904	-0.0188647	-0.108292	0.0840991	0.0743067	-0.0593302	-0.0627863	0.0172806	0.0650904	-0.0110884	0.0081723	-0.0156246	-0.0367214	0.0143285	-0.00986436	0.0244809	0.0185767	0.0633623	0.00111154	0.0400335	0.0228968	-0.00399615	0.0195847	0.0668185	0.0688345	0.0576021	-0.052994	-0.00153006	-0.028081	0.0397455	-0.026929	0.0446417	0.00957635	-0.0864032	-0.0169206	0.0466577	0.00720027	-0.0881313	0.0142565	0.0149046	-0.0616343	0.0122405	0.0944675	0.0385934	0.00759628	0.105412	-0.0137525	0.0365774	-0.0244809	0.00702026	-0.0115924	0.0285131	-0.0168486	0.0183607	0.0696986	-0.0179287	-0.0478098	0.0331212	-0.0685465	0.0573141	0.0400335	-0.0437776	0.0146165	0.00325812	-0.0748828	0.0358573	0.0187207	-0.0408975	-0.052706	0.0315372	-0.0252009	0.081219	0.103108	-0.0636504	0.0217448	-0.0984996	0.0176407	0.0754588	-0.0616343	-0.111172	-0.0734427	-0.05357	-0.0504019	0.0622103	-0.027217	0.0679705	-0.153222	-0.0145445	0.0227528	0.0599062	0.0573141	0.0110164	-0.0705626	-0.027073	0.0120244	-0.0166326	-0.0564501	-0.00921634	-0.00246609	0.0524179	0.0144725	0.0673945	0.0489618	-0.0587542	-0.0578901	0.0478098	0.0377294	-0.0303851	-0.0648024	0.0288011	-0.127877	-0.0440656	-0.0329772	0.0145445	0.0145445	0.00928834	-0.0354253	-0.0111604	0.132485	-0.0875552	-0.0234729	0.0990757	-0.0457937	-0.10426	-0.0734427	-0.0665305	0.0054002	-0.080067	-0.0296651	-0.141701	0.0887073	0.0324012	-0.00601222	0.105988	-0.0892833	-0.0927394	0.0348493	-0.000837031	-0.0515539	-0.137093	0.0898593	0.0472337	0.05357	-0.0194407	-0.0956195	0.0604822	0.00374414	0.0561621	-0.027361	-0.0748828	0.0898593	-0.0455057	-0.0226088	-0.000240759	0.0558741	0.0601942	0.0728667	0.0426256	0.112324	-0.0455057	0.0147605	0.0119524	-0.00478818	0.0829471	0.0388814	0.0650904	-0.000310512	-0.0231849	0.0915874	0.111172	0.0204488	-0.124997	-0.142277	-0.0164886	-0.0388814	-0.00363613	-0.0406095	-0.0249129	-0.0312492	-0.0141125	-0.0150486	0.0699866	0.0789149	-0.0840991	0.0208808	-0.0766108	0.0777629	0.0332652	-0.0426256	0.00986436	0.0653784	-0.100804	0.0025921	-0.0162006	0.0460817	-0.0590422	0.0154086	-0.00745228	-0.00468017	-0.00943235	0.0656664	0.0347053	0.102532	0.0696986	-0.0480978
Sandip_Nandy	0.032546	0.0444005	0.040952	0.0672474	0.064661	-0.0551774	0.0160575	-0.0482802	-0.0103458	0.0370723	0.112941	0.00829816	-0.126736	0.0433229	-0.02511	0.0607813	0.0685406	0.00541536	-0.0240323	0.0385811	0.058626	0.00894477	0.0489268	-0.044185	0.0758689	-0.0888011	-0.0113696	-0.0926807	0.0594881	0.00792097	-0.0676785	-0.0528065	0.0719892	-0.00608891	-0.0297441	-0.0202604	-0.00299057	-0.0560395	-0.0366412	0.00436462	0.014441	-0.00573866	0.0711271	0.00184553	0.0151953	-0.0418141	-0.0681096	-0.0650921	0.0633678	-0.0474181	0.0323305	0.0857836	0.0637988	-0.0603503	-0.0517288	0.0819039	0.120701	0.0403053	-0.0547463	-0.0698339	-0.0493579	-0.0108307	-0.0405209	-0.0132016	-0.00732824	-0.00732824	0.0543152	-0.17674	0.0347014	0.0763	0.000814998	0.0931118	-0.00910642	-0.106906	-0.126736	-0.0836282	-0.0387966	-0.101302	-0.000196172	-0.0260799	-0.0220925	0.0454782	0.00509205	-0.0120162	0.125011	0.0480647	-0.012555	-0.0146565	0.0233857	-0.041383	0.00991468	-0.0543152	-0.022308	0.118114	-0.0418141	-0.014872	-0.0560395	0.0290974	0.00387966	-0.00568478	0.00598114	0.0329771	0.0306062	-0.00146161	0.0233857	-0.0129322	0.049789	-0.0418141	0.0316839	0.044185	-0.0282353	-0.00188595	0.0456938	0.000204591	-0.00829816	0.0528065	-0.0685406	-0.0857836	0.00385272	-0.0120701	-0.0467714	0.0344859	-0.196569	0.0145487	-0.0603503	0.0295285	-0.14053	0.00722048	0.0344859	-0.0523754	-0.0459093	0.049789	-0.0109385	-0.0719892	0.0474181	-0.0875079	0.0379344	0.0102919	-0.053022	0.103458	-0.00654692	-0.0961293	0.0127167	-0.0158419	-0.0771621	0.0312528	-0.0140099	0.0819039	0.0225236	0.00398743	0.0306062	-0.00969915	-0.0383655	0.0694028	0.03815	0.0205837	-0.0694028	0.00608891	0.0982847	-0.041383	-0.012555	-0.102164	0.0123934	-0.0870768	-0.0143332	-0.0424607	0.0210148	-0.0407364	-0.0128244	-0.00862146	-0.0801796	0.0573327	-0.0362101	-0.0732825	0.0428918	-0.0935429	0.104751	-0.0750067	-0.0594881	-0.118976	-0.0215537	0.0463404	-0.0139021	0.0549618	-0.00813651	0.0853525	0.0650921	-0.0844904	-0.00571172	-0.0209071	-0.17674	0.00433767	-0.0482802	0.00379883	0.0454782	-0.0364257	-0.023278	0.0366412	-0.0474181	0.00431073	-0.0616435	-0.0115851	-0.0173507	-0.0290974	0.114665	-0.101733	0.0560395	-0.0452627	-0.0763	-0.0633678	-0.0862146	-0.070696	-0.0290974	0.0195061	-0.03815	0.00786709	0.0314683	0.0620745	-0.0840593	-0.0560395	-0.0948361	0.0139021	0.0248945	0.0379344	-0.00926807	0.131046	0.0156264	-0.0948361	0.059057	-0.0186439	-0.0450472	0.049789	-0.041383	0.0364257	0.0974225	-0.0229546	-0.100871	-0.0793175	-0.0888011	0.0195061	0.0392277	-0.0415986	0.0117467	-0.0629367	-0.0745757	0.0448316	-0.0663853	0.0165963	-0.029313	0.0484957	0.0780243	-0.0603503	0.0702649	0.0896632	0.0476336	0.00303098	-0.0603503	0.0119084	-0.0398743	-0.0569017	0.0493579	0.175878	0.0284508	-0.0426762	0.0299596	0.0201527	-0.0616435	0.0400898	0.0763	-0.08837	-0.064661	-0.0400898	-0.0715582	0.0510822	0.0888011	0.0179973	-0.0290974	0.0504356	0.000119555	0.0719892	-0.0316839	-0.0603503	-0.0189672	-0.035348	-0.0331926	0.0269421	0.0467714	-0.0258644	0.0198294	0.0484957	0.0387966	-0.032546	-0.00313875	-0.0067894	-0.0411675	0.0394432	0.0109924	-0.00862146	-0.0405209	0.100871
Bad_Habits	0.00747665	-0.050369	-0.114729	0.0801007	-0.0311308	0.00264525	-0.118227	0.00415369	-0.0195879	0.0766028	0.123124	0.0650599	0.03253	0.0122425	-0.0386512	-0.0267585	0.0881457	0.0159152	-0.0188009	-0.0149533	0.109832	-0.00505002	-0.00620868	0.00791388	-0.0849977	0.0727552	0.0101	0.0507188	-0.0431984	-0.0517681	-0.142013	0.0234356	0.0814998	-0.0517681	0.0573647	-0.0888453	0.0804505	-0.0278079	-0.0521179	0.00594634	0.0468711	-0.0661093	-0.034104	0.0556158	-0.0445975	-0.0486201	-0.0468711	-0.0025578	0.0132918	0.0738046	-0.169296	0.055266	0.086047	0.017839	0.169995	0.0417993	-0.0328798	-0.0542166	-0.00743292	-0.035678	0.0696071	0.104236	-0.0388261	0.0398754	0.0290321	0.00734548	0.0482703	0.0745041	-0.0218615	0.0372521	-0.0182762	-0.107034	0.0313057	0.00848228	-0.055266	-0.0612123	-0.0923431	0.0598132	-0.00983769	-0.0972401	-0.0612123	-0.0661093	0.0417993	-0.0489698	-0.0447724	-0.0365525	-0.0482703	0.0717058	0.0465214	-0.058414	-0.02431	-0.0594634	0.0853475	0.164399	0.00443789	0.0412746	0.0689076	0.0316555	-0.0608625	-0.00292945	0.0444226	-0.0381265	-0.0745041	-0.0766028	-0.0379516	0.055266	0.00730175	-0.0482703	0.0106684	0.00839483	-0.0120676	-0.0524677	-0.018626	-0.0437231	0.012155	-0.0384763	0.0141663	0.0271083	-0.0442478	-0.0881457	0.00804505	-0.00686452	-0.0351534	-0.0208996	-0.035678	-0.0183637	-0.0577145	0.0689076	-0.0835985	0.0230858	-0.0222113	-0.109133	0.0253594	0.00303875	-0.0419742	0.0842981	0.0314806	-0.100738	0.0608625	0.0923431	0.0643604	0.03253	-0.00154124	-0.086047	-0.0930427	0.0475707	0.116128	0.107034	0.0360278	-0.0205498	0.0818496	-0.0636608	0.125922	0.00655846	-0.053517	-0.0101	-0.042149	-0.0143412	-0.0272832	-0.134317	0.0321802	0.0465214	0.0814998	-0.068208	-0.0290321	-0.0306062	-0.0190633	-0.0079576	-0.118227	-0.00400066	0.0381265	-0.0825492	0.0867466	-0.0818496	-0.0759033	-0.0213369	0.0181888	0.0376018	-0.0577145	0.078002	0.0348036	0.0339291	-0.0521179	-0.00112587	-0.095841	-0.021162	-0.00782643	-0.0703067	-0.0814998	0.0451222	-0.0790513	-0.0412746	0.0447724	-0.0391759	-0.0706565	0.0442478	0.0608625	0.0615621	0.0493196	0.00349785	0.151807	0.0102312	-0.0393508	0.0388261	0.134317	0.00288572	-0.0344538	0.0176641	-0.0278079	0.0188009	-0.068208	-0.0222113	0.0402252	0.0248347	-0.0888453	0.0223862	-0.0678582	0.0370772	0.0159152	0.00461278	-0.0514183	0.0846479	0.0167897	0.0417993	0.0720556	0.00808877	-0.0120676	-0.0313057	-0.00594634	0.0229109	0.0208122	-0.0410997	-0.0417993	0.0591136	-0.00496257	-0.010581	0.0214243	-0.0248347	0.0430235	-0.00883206	0.0507188	-0.0507188	0.076253	-0.0384763	0.0619119	-0.0160026	-0.015478	0.0801007	-0.060163	-0.0193256	-0.0388261	0.0397006	0.0262338	0.0208996	-0.0313057	-0.0856972	-0.0257092	-0.011368	0.0299066	0.0229109	0.0376018	0.0664591	0.0877959	-0.0821994	-0.0482703	-0.0246598	-0.11333	0.0125922	-0.00474395	0.0346287	-0.0451222	0.0549162	-0.0250096	0.0591136	0.0696071	0.122425	-0.0622617	-0.0230858	0.0643604	0.0475707	-0.00415369	-0.0139914	-0.0208996	-0.027633	-0.00843855	-0.0696071	-0.0204624	0.0979397	0.0619119	0.058414	0.0209871	0.0692574	-0.0608625	-0.086047	0.0153905	-0.053517	0.00267804	-0.0404001	0.0139039	0.027633
hangs_precariously	0.059142	-0.0189117	-0.0728959	0.0465342	-0.0193701	-0.0476804	0.0547866	0.0259033	-0.0447003	0.0605174	0.052265	0.0223502	-0.029571	-0.0373649	0.0146709	0.0570789	-0.0609758	0.0678528	-0.0935269	0.0728959	-0.0318633	0.0146709	-0.0460757	0.0783975	0.0816068	-0.00148285	-0.0396572	0.0421788	0.0706036	-0.0880253	0.00362474	-0.00939853	0.0339264	-0.003023	0.0414911	-0.0323218	0.0371357	0.0751883	0.042408	-0.0302587	-0.122869	-0.0669359	0.0921515	0.00194848	-0.0861914	-0.0912345	-0.000178192	0.0566204	0.0247571	-0.0362187	-0.14029	0.0880253	0.0410326	-0.0962776	0.0428665	-0.0127797	-0.139373	-0.066019	-0.0309464	-0.0387403	0.0109459	0.0398865	-0.00107453	-0.0469927	0.0728959	-0.0641851	0.065102	-0.0458465	-0.0609758	-0.00183386	-7.56646e-05	-0.0371357	-0.00819506	-0.0244133	-0.0637266	-0.102238	-0.0149001	-0.00767929	-0.0802314	0.0543281	0.0293418	-0.109115	0.0254448	-0.0428665	0.0692282	0.00730679	-0.0628097	-0.0490558	-0.0520358	0.0504311	-0.0291125	-0.0330095	0.0802314	0.0430957	-0.146709	0.0497435	-0.0476804	-0.035531	0.0257887	-0.0935269	-0.0267056	0.0820652	0.0476804	-0.0939853	-0.00383964	0.0168486	-0.0174217	-0.0687697	-0.0458465	-0.0207455	-0.00521504	-0.00242127	0.0311756	-0.0304879	-0.00968507	-0.00335253	-0.0339264	0.029571	0.00945584	0.0336972	0.0756467	0.0921515	0.0359895	-0.078856	-0.039428	0.0609758	-0.0269348	0.0147855	-0.0687697	-0.00044772	0.0875668	0.0701451	-0.0990284	-0.0017479	0.0502019	0.0350726	-0.0375941	0.0114043	-0.0502019	0.0311756	0.111407	0.0229232	-0.0056735	0.0584543	0.0184532	0.059142	-0.0728959	-0.00974238	0.0346141	-0.0278517	-0.0191409	-0.0298002	0.0701451	-0.0118628	0.0288833	0.035531	0.0797729	-0.0485973	0.0385111	-0.0357603	0.00541562	0.0538696	0.0375941	-0.0949023	0.0277371	-0.0696867	0.101779	-0.066019	-0.0117482	0.0181094	-0.071979	0.0410326	-0.0586835	-0.0811483	0.0126078	-0.0102008	0.0435542	-0.0664774	-0.0249863	0.0871083	-0.118284	0.0802314	-0.00590274	-0.0447003	-0.126536	0.0176509	0.077939	-0.0101435	0.0673944	-0.0195994	0.0236109	-0.0216625	-0.0202871	0.112324	-0.00733544	0.0802314	-0.0278517	0.0336972	0.0710621	0.0545573	0.0460757	-0.0547866	-0.0871083	-0.0733544	-0.0210894	-0.0327802	-0.00154016	-0.0298002	0.0084816	-0.0596004	-0.104988	-0.0147855	-0.0307172	0.0293418	0.000698443	-0.0412618	0.00934122	-0.0229232	-0.0126651	0.100404	-0.085733	0.0263617	-0.0350726	-0.0067337	0.0127224	0.00504312	-0.0307172	-0.0474511	-0.0038683	-0.0155878	-0.0806898	-0.0206309	-0.0540989	0.0568497	0.0426372	0.101321	-0.0077939	-0.0330095	0.084816	0.0488265	0.0440126	0.0341556	0.0559327	-0.0664774	0.0192555	-0.0573081	0.025101	-0.0637266	-0.0175363	0.0270494	0.0506604	0.036448	-0.028081	0.109115	0.143958	-0.14029	-0.0348433	-0.0293418	0.0127224	0.12837	-0.0307172	-0.00739275	0.0437834	0.0967361	-0.0430957	0.132955	-0.0278517	-0.071979	0.0511188	0.0508896	-0.162297	-0.000981402	0.0123212	-0.0618928	0.0499727	-0.0437834	-0.0435542	-0.0419495	-0.0268202	0.101321	0.0161609	-0.0311756	0.0912345	0.0605174	0.0710621	0.00214905	-0.118284	0.100862	-0.0302587	-0.0559327	-0.111407	0.0207455	-0.0207455	-0.0198286	-0.0793144	-0.026591	0.00202011	-0.0880253	0.0600589	-0.0268202
Joe_Talamo_aboard	-0.0502668	0.000244014	-0.0336739	0.054171	0.00576482	-0.0863808	0.0306237	-0.0439224	0.111758	-0.0301357	0.000884549	0.00199786	-0.0155559	-0.00144883	-0.0602713	-0.0329418	0.0824766	-0.0298917	-0.119567	0.0190331	0.0732041	0.0683238	0.0213512	0.00841847	-0.0217172	0.0436784	-0.0276955	0.0225713	-0.0254994	-0.0463626	0.0612474	-0.00338569	0.104926	-0.090773	-0.0154339	0.0446545	0.0222052	-0.053927	0.00433124	-0.0468506	-0.00484977	-0.0312337	0.0849167	-0.0241573	0.0941892	0.00433124	0.0141528	0.0431904	0.0634435	-0.0163489	-0.0191551	0.0497788	0.0751562	0.0150068	-0.0617354	0.105414	-0.0138478	-0.0101876	-0.0480707	-0.0446545	0.0456305	0.00352295	0.0231813	-0.0463626	0.0158609	-0.0278175	0.0242793	0.054903	0.0414823	0.0500228	0.0348939	-0.036602	-0.00710689	-0.0834526	-0.0213512	-0.0417263	0.0858928	-0.118591	0.0658837	-0.0168369	-0.0300137	-0.0668597	-0.00707639	-0.0610034	-0.0252554	0.0617354	-0.0105536	0.0829646	0.0527069	0.017813	-0.0512428	0.0578312	0.0211072	0.017203	0.00683238	0.0463626	0.0839407	-0.0303797	0.00945552	0.00951653	0.054659	-0.0326978	0.0204971	-0.0485587	0.0500228	-0.072716	0.0468506	-0.0317218	-0.0819886	-0.036602	-0.0283056	0.0115906	0.118591	-0.0517309	0.0307457	-0.0456305	-0.0169589	-0.00835746	0.00933352	0.0375781	-0.0385541	0.0858928	0.00312642	-0.000421305	0.0348939	-0.0624675	-0.0607594	0.054415	-0.122007	0.0839407	-0.101022	-0.00054903	0.00157084	-0.0473386	-0.0858928	-0.144456	-0.0829646	0.0159829	0.017203	0.104926	-0.0639315	0.0307457	0.00799144	-0.0257434	0.0286716	-0.036602	-0.017569	-0.0148238	0.0478267	-0.0844287	0.0566111	0.0317218	0.0612474	0.0090895	-0.0407503	-0.0800364	0.054415	-0.105414	0.00969954	-0.089309	0.0322098	-0.00628335	0.0570992	0.100046	0.00355345	-0.0427024	-0.0688118	-0.108342	0.00381271	0.0917491	0.0162269	-0.0208632	0.0383101	0.00161659	-0.0917491	0.00222662	-0.0563671	-0.106878	-0.053683	-0.0644196	-0.144456	-0.036358	0.0259874	0.0229373	-0.0597833	-0.129815	0.0505108	-0.0334299	-0.054903	0.0223272	-0.146408	0.0448985	0.0692998	-0.0610034	-0.0378221	0.00346194	-0.100046	0.0653956	-0.0427024	0.0339179	-0.0193991	-0.018545	-0.054415	0.0196431	0.111758	-0.0697879	0.00125819	-0.0147628	-0.0556351	-0.0269635	-0.0517309	-0.0231813	-0.0165929	0.0649076	0.00969954	0.0937012	-0.0937012	0.00396522	0.0331858	0.017813	-0.0849167	0.162025	-0.0668597	-0.0270855	0.00109806	-0.0341619	0.0329418	0.0217172	0.0985815	0.0673477	0.0324538	-0.0492907	-0.0878449	-0.0466066	-0.0427024	0.0272075	-0.0390422	-0.0649076	0.0678358	0.0144578	-0.0524629	-0.0383101	0.0431904	-0.0072899	0.0170809	-0.0815005	-0.0692998	0.0505108	0.00481927	-0.0932132	-0.0461186	0.0434344	-0.00976054	-0.00488027	0.0319658	-0.0204971	-0.0397742	-0.0614914	-0.0475826	-0.0412383	0.10883	0.0290376	-0.0673477	0.0558791	0.00823546	0.0653956	-0.0878449	-0.0222052	0.0422143	0.0849167	-0.0622235	0.0617354	-0.110782	0.0159829	0.0387982	0.0751562	-0.0849167	-0.11371	-0.00475826	0.0844287	-0.0824766	0.123959	0.00765592	0.0334299	0.0751562	-0.0400182	-0.036846	0.0980934	-0.0230593	0.0164709	0.0795484	-0.0673477	-0.121519	0.0509988	0.14348	0.0018301	-0.0202531	-0.0400182	0.00811345	0.0209852
Lidle_Cory_Lidle	-0.000914773	0.0694858	-0.0211414	0.0399174	-0.0233591	-0.00887053	0.0665289	-0.118865	0.130101	0.0768779	-0.00293836	0.0396217	-0.11236	0.022472	-0.0502663	0.00946189	-0.0301598	0.0946189	-0.0122709	0.00912925	0.0304555	0.0313425	0.103489	0.0792434	0.0366648	0.00071149	-0.0128623	0.0381433	0.0724426	-0.0804261	-0.0780606	-0.0170018	0.0887053	-0.0344472	0.00388086	0.0209936	0.0455354	0.0115317	-0.0357778	0.0119752	0.0251332	-0.0626851	0.0558843	0.0922535	0.0221763	-0.0875225	0.0188499	0.000748451	0.0845657	-0.000434286	-0.0307512	0.0567714	-0.0461267	-0.108812	0.00388086	0.014045	-0.117682	-0.00790955	-0.0328209	-0.00206979	-0.000217143	0.00868572	-0.0529275	0.0350386	0.0149321	-0.015006	0.0603196	-0.0487879	0.0374041	0.05618	-0.00654201	-0.0416915	-0.0588412	0.0680074	-0.11236	-0.0544059	0.00210675	-0.0928448	0.103489	0.0347429	0.0289771	0.0072073	-0.0357778	-0.0058028	0.0753995	-0.0774693	0.0487879	0.0204022	-0.00646809	-0.0189238	0.0214371	-0.0700772	-0.0892966	0.0464224	-0.0476052	-0.0116056	0.0742167	-0.00480487	-0.0175932	-0.0171497	-0.0378476	-0.0147842	0.0458311	-0.0822002	0.0440569	-0.0298641	-0.00776171	0.0325253	0.0014045	0.0538145	-0.0155973	-0.036517	0.0709642	-0.0261681	-0.0172236	0.0958017	-0.105855	0.0170758	0.073034	0.0685987	-0.134241	0.00189423	-0.102307	0.0136015	0.0458311	-0.147842	-0.106446	0.0588412	-0.0116795	0.0650505	-0.0012197	-0.00454614	-0.015893	0.0206979	0.0204022	-0.00742907	0.0458311	0.0638678	0.0226198	0.115908	0.0487879	0.0238026	-0.0359256	0.0342994	-0.0291249	0.0479008	-0.00282748	-0.147842	-0.0653462	-0.0297163	0.128918	-0.033708	-0.00373301	0.0217328	0.0390303	-0.0238026	-0.120639	0.000951733	-0.0264637	-0.0461267	-0.0141189	0.0680074	0.114134	0.0644592	0.112951	-0.0615023	0.102307	0.0242461	0.0694858	0.00909229	-0.0712599	-0.039326	0.0283857	-0.0753995	-0.0187759	-0.0125666	0.0958017	0.0344472	-0.0857484	-0.0532232	0.00258724	0.0301598	0.0130101	-0.0845657	0.104081	-0.0292727	0.0105707	-0.0425785	0.0547016	-0.00735514	0.00188499	0.0780606	-0.0440569	-0.0434656	0.0419872	0.0712599	-0.0742167	-0.0286814	0.0359256	-0.216441	-0.00887053	0.000314164	-0.033708	-0.0351864	0.0314904	-0.0774693	0.0798347	0.0070225	-0.110586	-0.0975758	-0.00288292	0.0298641	0.0638678	0.0119752	-0.0011273	0.00724426	0.0118274	0.0208457	-0.0685987	-0.0916621	-0.0261681	-0.0233591	0.0157452	-0.0295684	-0.0187759	0.0086118	-0.0523361	0.101124	-0.00316012	-0.0798347	-0.0263159	-0.0211414	0.121231	-0.0107186	0.0270551	-0.00314164	0.0141928	-0.11236	-0.0164105	0.0615023	-0.0369605	-0.100533	0.0232112	-0.0827916	-0.0254288	0.0142668	-0.0204022	0.0721469	-0.0629807	-0.0928448	-0.0366648	-0.00217143	0.00454614	0.127736	0.0579541	0.0166322	0.0712599	-0.02809	-0.011236	-0.0179628	0.0558843	0.119456	0.0981672	0.0431699	0.0700772	0.0774693	-0.132467	-0.0103489	0.0366648	0.018702	-0.0700772	0.034595	-0.0235069	0.0688944	0.0399174	-0.0798347	-0.0452397	0.0186281	-0.00473095	-0.00742907	0.00739211	-0.00717034	-0.0221763	0.0202544	-0.0058028	-0.0291249	-0.00121046	0.0304555	0.0685987	0.0745124	-0.0306033	-0.0547016	-0.0322296	0.0437613	-0.0751038	0.0143407	-0.0526318	-0.0694858	0.0538145	0.0351864
Escapia	-0.00896977	-0.0660555	-0.0396808	0.0579768	-0.04871	-0.0513237	0.00801933	-0.0841138	0.0750847	0.00221274	-0.02982	-0.0186524	0.0231669	-0.0122369	0.00231669	-0.0579768	0.108825	-0.0470467	-0.0217413	0.0567887	-0.0489476	-0.00143308	-0.0160387	0.00968259	-0.0874404	0.0627289	0.0665307	0.0632042	0.0546502	-0.058452	-0.105499	0.0370671	-0.0427697	0.0627289	0.052987	-0.033503	-0.0670059	-0.0420569	0.0225729	0.00813813	0.00683128	-0.0049601	-0.0211473	0.0698572	-0.0717581	-0.0831634	-0.0262559	-0.0959943	-0.0382552	-0.00314833	0.0274439	0.0491852	-0.0396808	0.00397996	0.0308893	0.0831634	-0.0627289	0.0327901	-0.0339782	-0.0520365	0.0163951	-0.0168703	-0.0798368	0.00968259	-0.0850643	-0.00210879	-0.0220977	0.0289884	0.0513237	0.0375423	-0.0765103	-0.0274439	-0.0708077	-0.0750847	0.0674811	-0.0268499	0.0396808	-0.0185336	0.0513237	0.0216225	0.0582144	0.0318397	-0.0617785	0.0760351	0.176782	-0.136863	-0.0217413	0.0579768	0.0344534	0.0273251	0.0570263	-0.0308893	-0.0746094	-0.00274736	-0.0121181	-0.0917173	0.0439578	-0.0665307	0.0517989	-0.106449	0.0166327	-0.0339782	0.0289884	0.0755599	0.0308893	0.077936	-0.0280379	0.077936	0.0263747	0.0222165	-0.0788864	0.0210285	-0.0411065	0.0351662	0.0168703	0.0285132	-0.00270281	-0.110726	-0.0173455	0.0636794	-0.0261371	0.0275627	0.058452	0.0193652	0.153021	-0.00772231	-0.0482348	0.0964695	-0.0205532	0.0798368	-0.0147912	0.09742	-0.00968259	-0.00879156	0.0451458	-0.0532246	-0.0451458	0.0527493	-0.0261371	0.0646298	0.024949	-0.126408	-0.0253054	-0.0242362	-0.00674217	0.0422945	0.00968259	0.0470467	-0.0181771	-0.0413441	0.0325525	0.0171079	-0.0959943	-0.0418193	-0.0148506	0.00362355	0.0950439	0.0213849	-0.0641546	0.0323149	-0.0582144	0.0224541	-0.0273251	-0.0356415	0.0212661	0.00522741	-0.00902917	-0.0108706	-0.0470467	0.0674811	0.0510861	-0.0468091	0.0893412	-0.137814	0.0565511	0.0665307	-0.038968	-0.0270875	-0.0577391	0.0617785	-0.0209097	0.0501356	0.0387304	-0.106449	0.0112865	-0.0311269	-0.0403936	0.0864899	0.0765103	-0.014019	-0.0708077	0.0344534	0.0126527	-0.0565511	-0.0617785	0.0323149	-0.0415817	0.0330277	0.0354038	-0.136863	-0.0370671	0.00316318	0.0670059	0.0205532	-0.0517989	-0.0472843	0.0539374	-0.000285874	-0.0451458	0.0128309	0.0632042	0.0525117	-0.0534622	0.0491852	-0.0332654	0.0449082	0.0133061	0.0964695	-0.105974	-0.00224244	0.0874404	0.0115241	0.0646298	-0.0731838	-0.044433	0.0921926	0.0411065	-0.0344534	-0.0441954	-0.0234046	0.0627289	0.0245926	-0.0525117	-0.131161	-0.0912421	0.077936	-0.0136626	-0.0361167	-0.00950439	0.0755599	-0.00317803	-0.0807873	-0.0513237	-0.0544126	-0.00262856	-0.0468091	0.0396808	-0.0294636	0.0205532	-0.09742	-0.0869651	-0.00873215	-0.0185336	0.0679564	0.0118211	0.0266123	-0.0425321	-0.0826882	-0.0712829	-0.0983704	0.0651051	0.00424727	0.0301764	0.05964	0.0313645	-0.0472843	-0.0689068	-0.073659	0.0465715	-0.0415817	0.0406313	0.105499	-0.0746094	0.0166327	-0.0917173	0.0769855	-0.0712829	0.077936	0.100271	-0.077936	-0.0150882	0.0048116	-0.0115835	0.0608281	0.00161872	0.133061	-0.0396808	0.0119399	0.00703919	0.111201	0.077936	-0.00760351	-0.0220977	0.0893412	0.0603529	-0.0670059	-0.0273251	-0.0441954	0.193889	0.0268499
Toxics_Alliance	-0.0103472	0.0850248	-0.0395159	0.0247209	0.0809046	-0.02753	0.0256573	-0.0344594	0.0595548	0.00578225	0.00721025	-0.0320247	-0.0044947	-0.00458834	-0.122106	0.00114709	-0.0286537	-0.00599294	-0.0681696	0.0876467	0.0158251	0.134841	-0.0659223	0.0143269	0.00599294	0.00767845	-0.0666714	0.0603039	-0.0655477	-0.023129	0.0417633	0.0094576	-0.0260318	-0.0618021	0.0447597	-0.0235035	0.0121731	0.046258	0.0397032	0.0801555	-0.0273428	0.0719152	-0.0295901	0.0868976	-0.113866	-0.0258445	-0.0966361	-0.00697615	0.0234099	-0.0230353	0.0166679	-0.0299647	-0.0640495	0.0389541	-0.0621767	-0.0599294	0.0179788	-0.0374558	-0.0501908	-0.154318	-0.0494417	0.0516891	-0.0205071	0.0173233	-0.0100663	-0.0400778	0.0951378	0.110869	-0.00538428	0.0490672	0.0294028	0.0161997	-0.0190088	0.0455089	-0.00348808	-0.0113304	-0.0436361	-0.0327739	0.0936396	0.131845	0.0681696	0.0173233	-0.044947	0.0117518	0.0376431	0.0245336	-0.021818	0.0189152	0.0132968	0.0102535	0.023129	-0.0297774	-0.0372686	-0.00421378	-0.0151696	0.032212	0.0279046	0.0290283	-0.00571202	-0.0588057	0.0498163	0.00664841	-0.00255168	0.0016504	0.077159	0.00786573	0.00275066	-0.0124541	0.00206007	-0.0310884	-0.038205	-0.0689188	0.0417633	0.0546855	0.0205071	0.00763163	0.0651732	0.0456961	0.0790318	-0.00678887	-0.057682	0.129597	-0.0805301	0.0265936	0.0406396	-0.0475689	0.00503313	0.0809046	0.0520636	0.0696679	-0.0389541	-0.0233163	-0.0374558	-0.0588057	-0.0149823	-0.0198516	-0.0498163	-0.0692933	-0.0286537	-0.0887704	-0.0501908	0.00440106	-0.117611	-0.0361449	0.0239717	-0.024159	-0.0198516	0.0181661	-0.0458834	0.0460707	0.165555	-0.0546855	0.0111899	0.0692933	0.0677951	-0.0191961	0.121357	-0.0928905	-0.0219117	-0.0408269	0.0430742	0.0337103	0.0973852	0.136339	0.0337103	0.0120795	0.0707915	0.00337103	-0.0143269	0.0820283	0.0734135	0.0338975	-0.0372686	0.0201325	0.0528127	-0.0152633	-0.0106281	0.00222394	-0.032212	0.0425124	-0.0513145	-0.122855	0.0910177	-0.0325866	-0.00824029	-0.0389541	0.0049629	0.061053	-0.0132968	0.0464452	0.0147014	0.0786573	0.0359576	-0.0940142	-0.146827	0.00697615	0.054311	-0.191774	0.116113	0.0883958	-0.0370813	0.0393286	0.125103	0.0520636	0.0305265	0.0199452	0.107873	0.0715407	-0.00842756	-0.0486926	0.0398905	-0.0286537	-0.0292156	-0.0227544	0.0211626	0.0520636	-0.00372217	0.0565583	0.0264064	-0.101131	-0.00252827	-0.00856802	0.0406396	0.0464452	0.0286537	-0.044947	0.0195707	0.0400778	0.019477	-0.0186343	-0.0214435	0.0383922	-0.0460707	-0.0340848	-0.095887	0.00522041	-0.00772527	-0.0196643	0.0338975	0.046258	-0.0408269	-0.0569329	0.0101131	0.0367067	0.0561838	0.0775336	-0.11911	-0.00767845	-0.089894	-0.0910177	-0.102629	-0.0264064	-0.023129	-0.0327739	0.0659223	-0.0644241	0.00655477	-0.0662968	-0.0603039	0.0209753	-0.103378	0.00824029	0.00250486	-0.0202262	0.0132968	0.0779082	-0.0166679	-0.0106749	-0.0370813	0.0106749	0.0524382	-0.036894	-0.0730389	0.0951378	-0.00866166	-0.0423251	-0.112368	-0.0310884	-0.00805301	0.0505654	-0.0232226	-0.0141396	0.00955124	0.116113	-0.0372686	-0.102629	-0.0764099	-0.0273428	0.128848	0.0606785	0.0546855	-0.0432615	-0.128848	0.0124541	0.0584311	-0.0752862	-0.000244341	-0.0651732	0.107873	0.149074
AeroTech	-0.0310125	-0.00229069	-0.0258437	-0.0296028	-0.0458139	-0.0387656	0.022672	-0.00610852	-0.00845795	-0.00513938	-0.016446	0.111833	0.0676636	-0.0850494	0.0179731	-0.0219672	-0.0406451	-0.0111598	-0.0278407	0.0326571	-0.0512176	0.00863416	-0.0203226	-0.033127	0.00904531	-0.0491031	-0.0418199	0.0406451	0.0747119	-0.0212623	-0.0599105	-0.12499	-0.0279582	0.0312474	0.0634346	-0.0305426	-0.078471	-0.00763565	-0.0523923	-0.0415849	-0.0378258	0.0916278	0.013568	0.0920977	-0.0667238	-0.0972664	-0.0859891	-0.018678	-0.0285456	0.0502778	-0.0855193	0.0561514	0.0136854	-0.0448741	-0.0267835	0.0364162	-0.0119234	-0.0831698	0.00660777	-0.0538019	0.0111011	-0.0231419	-0.0587358	-0.0096914	-0.101965	-0.0566213	0.00308363	0.0455789	-0.0765914	0.0690732	-0.02044	-0.0733022	-0.000616725	0.00254032	-0.0462838	-0.0841096	0.0420548	-0.101965	0.00182815	-0.00256969	0.0243166	0.0193828	-0.0472235	-0.0855193	-0.0214973	-0.028898	0.0225545	0.0920977	-0.0265486	0.033127	-0.0368861	-0.0756516	0.00904531	0.0803505	0.0312474	-0.0291329	0.0519224	-0.110893	0.0472235	-0.16446	0.08223	-0.0629647	-0.117002	-0.0179731	0.0217322	0.000442354	0.0686034	0.0991459	0.0439343	0.0366511	-0.106194	0.00590294	-0.0930374	0.0177382	-0.0110423	-0.0146252	-0.00898657	0.0671937	0.0873988	-0.0530971	0.0718926	-0.0203226	0.0390005	-0.0585008	0.0601454	0.028663	-0.0991459	-0.0023788	0.0826999	0.0662539	0.0516875	0.0606153	-0.0794107	-0.0963266	0.0803505	-0.0483983	-0.0878687	-0.0761215	0.0254913	0.104785	0.0115122	-0.0257263	-0.0573261	-0.0761215	-0.0930374	-0.0580309	0.0547417	0.0789408	-0.00607915	-0.0397054	0.0361812	-0.070013	0.0250214	0.049573	-0.0138616	-0.134387	0.0761215	-0.0751818	-0.00156384	-0.0404102	0.0681335	0.0826999	-0.0512176	0.0305426	0.0310125	-0.0158587	0.0180906	0.0859891	-0.0542718	0.0502778	-0.0140966	-0.0552116	0.0789408	-0.0467537	0.0307775	-0.070013	-0.016446	0.000881036	-0.117002	-0.0667238	-0.0592056	-0.00229069	0.0101613	-0.000169783	0.0991459	-0.0368861	0.0276058	-0.02044	-0.0467537	0.0073126	-0.0498079	0.0538019	0.0406451	0.0298378	-0.0441693	0.00701892	-0.0191479	-0.12405	0.0507477	-0.125929	-0.0446392	0.0171508	-0.134387	0.00327452	-0.0455789	0.0794107	0.00417024	-0.0606153	0.0545068	-0.0234943	-0.0338318	0.0233768	0.00781185	0.0794107	0.0667238	0.00939772	0.00604978	0.158821	0.0547417	-0.0165635	-0.0432295	0.0237292	-0.0270184	0.0458139	-0.0109248	-0.00810553	-0.0761215	-0.0023788	-0.0444042	-0.00229069	0.0270184	0.0570912	-0.0681335	-0.0794107	-0.0831698	0.00751818	-0.0624948	-0.0312474	-0.0183256	0.00249627	0.00327452	-0.0239642	-0.0573261	-0.0676636	0.00437581	-0.0549767	-0.0977363	0.0299552	-0.0425247	0.014449	-0.0540369	-0.00810553	-0.049573	-0.111363	0.130628	0.0549767	0.0364162	0.0570912	-0.062025	-0.0287805	0.0243166	0.101495	-0.00115269	-0.12499	-0.00845795	-0.0032011	-8.3056e-05	-0.119351	-0.0451091	0.0287805	0.014449	-0.000159688	-0.0474585	-0.049338	-0.0481633	-0.0761215	-0.0244341	0.0718926	0.00315705	-0.0119821	-0.0582659	0.118411	-0.0273709	-0.00198233	-0.0238467	-0.0458139	0.057796	0.0505127	0.00892783	0.0455789	0.0106312	0.010455	-0.0982062	0.130628	0.0274883	-0.0143903	-0.0151538	0.149424	0.00511001	-0.0312474
Whydah	0.0390144	0.00981455	-0.104851	-0.0736396	0.051694	-0.0672998	0.0273101	0.00713231	0.0770534	-0.0268224	0.108753	-0.0916837	-0.0329184	0.0494995	0.030358	0.0975359	-0.0338937	0.062423	0.0373075	0.0282854	0.0497433	-0.051694	0.0390144	0.0485241	0.00336804	0.0597407	0.000264795	0.110703	0.114117	-0.00932687	-0.00993647	0.0453542	-0.0282854	0.00301752	0.0348691	-0.0219456	-0.0548639	0.00408432	0.0181661	0.0480364	-0.0336499	0.0607161	0.0169469	0.00765047	-0.0220675	-0.0229209	0.0150571	0.0507187	0.0468172	0.038039	0.0164592	-0.0229209	0.0218237	-0.17654	-0.0306019	0.0256032	0.0314553	-0.0804671	0.0035052	-0.0560831	0.132649	-0.062423	0.0470611	-0.00707135	0.0143865	-0.0377952	-0.177515	-0.0296265	-0.0120701	-0.036576	-0.0329184	0.000367665	0.0451104	0.0238963	-0.101437	-0.00367284	0.0414528	-0.0138379	-0.0356006	-0.0162153	-0.0343814	0.0326745	-0.0470611	-0.125821	0.168737	-0.119481	0.0268224	-0.000815339	0.0215798	-0.0370636	0.00202692	-0.00618743	-0.033406	0.107289	0.0207264	-0.0247497	0.0145085	-0.00132588	0.0843685	0.022799	0.00664463	0.0368198	0.0348691	-0.0353568	-0.0225552	-0.0178003	-0.00981455	0.0497433	0.0629107	-0.0451104	0.0127406	0.0950975	0.103388	0.0336499	-0.0853439	0.0231648	-0.0198729	-0.0531571	0.0741273	0.0541324	-0.0604723	-0.0285292	0.122408	-0.00957071	-0.0594969	-0.0682751	-0.103876	0.0526694	-0.0799794	0.0697382	-0.0173126	0.0157277	-0.0298704	-0.0128016	-0.0281635	-0.00499871	-0.0504748	-0.0123139	-0.0238963	0.0936345	-0.074615	0.00728471	-0.0397459	-0.0438912	0.00181356	-0.0497433	0.00871727	-0.0295046	0.0113385	-0.0633983	-0.00176022	-0.00938783	-0.0872946	0.157033	-0.0307238	-0.0146913	-0.0146304	-0.0169469	0.0414528	-0.0468172	0.0543763	-0.00640079	0.0687628	-0.0188976	0.0363321	-0.00786383	0.0451104	-0.0575462	-0.0707135	0.0643737	0.00679703	0.0592531	-0.015179	-0.0277977	-0.0196291	-0.0132893	-0.0702258	0.0431596	0.0188976	-0.0785164	-0.010668	0.0155448	-0.0156057	-0.0480364	0.0431596	0.00166116	0.0475487	0.0188976	0.133624	0.00321564	-0.0118872	-0.0254813	-0.0154838	0.0599846	-0.0780287	0.0726642	0.0565708	0.0252374	-0.103388	-0.0173126	-0.00399288	-0.0941221	-0.0892453	-0.0307238	-0.0204825	0.0154838	0.0209702	0.00330708	-0.0448665	0.0298704	-0.0790041	0.0558393	0.00697991	0.030358	-0.0553516	0.0275539	-0.0144475	-0.0424281	0.0672998	0.00798575	0.00505967	0.0590092	0.0036576	-0.0614476	0.003048	0.00385572	-0.0519379	0.0687628	-0.00652271	-0.0485241	0.0712012	-0.074615	-0.171663	-0.0580339	0.00847343	0.0277977	0.0199949	0.00533399	-0.0175565	-0.0184099	0.0353568	-0.144353	0.024384	-0.00914399	-0.0965605	0.0402336	0.0994866	-0.00518159	0.0936345	0.0480364	0.0419404	-0.0453542	0.0214579	-0.0373075	0.0716889	-0.112654	0.0312115	-0.129723	-0.1346	-0.0682751	0.045598	0.021336	0.00661415	0.0203606	-0.125821	0.00298704	-0.117043	-0.129723	0.0215798	0.038039	-0.0209702	0.0843685	-0.0202387	0.150205	0.0863193	-0.0331622	-0.0324307	0.0356006	-0.0131064	-0.0203606	-0.0785164	-0.036576	-0.00230124	-0.0360883	-0.0736396	-0.0555955	-0.000533399	0.045598	-0.0247497	0.0338937	-0.0580339	-0.0999743	-0.0232867	0.0247497	0.0247497	0.0363321	0.0697382	-0.051694	0.138501	-0.0329184
